3
784 32 10 
0.100000 0.100000 -0.010736 -0.100000 0.100000 0.032223 0.100000 -0.100000 0.100000 -0.100000 -0.100000 -0.100000 -0.100000 0.100000 0.100000 -0.100000 0.100000 -0.100000 -0.100000 0.100000 -0.100000 -0.100000 -0.100000 -0.100000 0.100000 -0.100000 -0.100000 -0.090702 0.100000 -0.002021 -0.100000 0.100000 
0.100000 -0.100000 0.100000 -0.100000 -0.100000 -0.100000 0.100000 -0.100000 -0.100000 -0.100000 0.100000 0.100000 -0.100000 0.100000 0.100000 0.100000 0.100000 -0.100000 -0.100000 -0.100000 -0.100000 0.100000 -0.100000 0.100000 -0.100000 0.100000 -0.100000 0.100000 -0.100000 0.100000 0.100000 0.100000 
-0.046787 0.100000 -0.064254 0.100000 -0.100000 0.100000 0.100000 -0.100000 0.100000 0.100000 -0.100000 -0.100000 0.040464 0.100000 -0.100000 0.100000 -0.100000 -0.100000 -0.100000 0.100000 -0.100000 0.100000 -0.028859 0.100000 0.100000 0.100000 0.100000 -0.012035 0.100000 0.100000 -0.100000 0.100000 
0.100000 -0.100000 0.100000 -0.100000 -0.100000 -0.100000 -0.100000 -0.100000 0.100000 -0.100000 -0.100000 -0.100000 -0.100000 -0.100000 0.100000 -0.100000 -0.100000 0.100000 0.100000 -0.100000 0.100000 -0.100000 -0.100000 0.100000 -0.100000 -0.100000 0.100000 -0.100000 0.100000 -0.100000 -0.100000 -0.100000 
-0.100000 0.100000 -0.100000 0.100000 -0.100000 -0.100000 0.100000 -0.100000 -0.100000 0.100000 -0.100000 -0.100000 -0.100000 0.100000 0.100000 0.100000 0.100000 0.100000 -0.100000 -0.100000 0.100000 0.093957 0.100000 -0.100000 -0.100000 0.100000 0.100000 0.100000 0.100000 -0.100000 -0.100000 -0.100000 
-0.100000 -0.100000 0.100000 0.100000 0.100000 -0.100000 0.041794 0.100000 -0.100000 0.006859 0.100000 0.100000 0.100000 -0.100000 -0.100000 0.100000 0.100000 0.100000 -0.100000 -0.100000 0.100000 0.060501 0.100000 -0.100000 0.100000 0.100000 0.100000 -0.100000 -0.100000 0.100000 -0.100000 0.100000 
-0.100000 0.100000 -0.100000 -0.100000 -0.100000 -0.100000 0.100000 -0.039897 -0.100000 0.100000 0.100000 -0.100000 -0.100000 0.100000 -0.100000 -0.100000 -0.100000 0.100000 0.100000 0.078390 0.100000 0.100000 0.100000 0.100000 -0.100000 0.100000 0.100000 0.100000 -0.100000 0.100000 0.100000 -0.100000 
-0.100000 0.100000 -0.100000 -0.100000 0.100000 -0.031878 -0.100000 0.100000 0.100000 0.100000 0.100000 -0.056079 -0.100000 -0.100000 -0.100000 -0.100000 0.100000 -0.100000 0.100000 -0.100000 -0.100000 0.100000 0.010590 -0.059341 -0.100000 0.100000 0.100000 0.100000 -0.100000 0.100000 0.100000 -0.086258 
0.100000 0.100000 0.100000 0.100000 0.100000 -0.100000 0.100000 0.100000 -0.100000 0.100000 0.100000 -0.100000 0.100000 0.100000 0.041437 0.100000 0.056307 -0.100000 0.100000 -0.100000 0.100000 0.100000 -0.100000 0.100000 -0.100000 0.100000 0.100000 -0.100000 0.100000 -0.100000 -0.100000 0.100000 
0.100000 0.100000 0.100000 -0.100000 0.100000 -0.100000 0.100000 -0.062422 0.100000 -0.100000 0.100000 -0.100000 -0.100000 -0.100000 0.100000 -0.100000 -0.100000 0.100000 0.075533 -0.100000 0.100000 -0.100000 0.100000 0.100000 0.100000 -0.100000 0.100000 -0.100000 -0.100000 0.100000 0.100000 0.100000 
-0.100000 0.100000 -0.100000 0.100000 -0.100000 0.100000 0.100000 0.100000 0.100000 0.100000 -0.100000 -0.100000 -0.050762 0.100000 0.100000 0.100000 -0.100000 0.099157 0.100000 -0.100000 0.100000 -0.005118 -0.100000 -0.100000 0.100000 0.100000 0.100000 -0.100000 0.100000 0.020337 -0.099307 0.100000 
0.100000 -0.100000 -0.100000 0.100000 0.100000 0.100000 0.100000 -0.100000 -0.100000 -0.034370 0.018731 0.100000 0.100000 -0.100000 0.100000 0.100000 0.100000 -0.043896 -0.100000 0.100000 -0.100000 0.100000 -0.100000 0.100000 -0.100000 0.088329 -0.100000 -0.100000 -0.100000 -0.001662 0.100000 -0.100000 
0.109959 0.093543 -0.096039 0.050604 -0.095836 -0.103966 0.101097 0.094216 -0.102218 0.096210 0.095991 -0.103972 -0.098606 -0.103770 0.082448 -0.103954 -0.111462 0.103974 -0.096028 0.096042 -0.096019 -0.104146 0.096024 0.096031 0.117924 0.117952 -0.082102 0.086620 0.110030 0.096017 0.096020 0.093777 
0.109997 0.095726 0.104000 0.082601 -0.095993 -0.104001 0.103883 0.095796 -0.103863 -0.103899 0.095999 0.095999 0.103883 0.096010 -0.117956 -0.103999 0.070366 0.104001 0.104007 -0.026665 0.104001 0.095993 -0.104003 -0.104001 0.117995 0.117995 0.117994 0.082804 -0.089968 0.095999 -0.104003 0.095578 
-0.089002 -0.097332 -0.089002 0.089549 0.097009 0.089002 0.110760 0.102795 -0.110861 0.103000 0.102999 0.089001 0.110791 0.089013 -0.110981 0.089002 -0.109198 0.110999 0.110998 0.089002 0.110999 0.016394 -0.110999 -0.110999 -0.089003 -0.089002 -0.089005 0.089340 0.110998 0.089001 -0.110999 -0.097423 
-0.089042 0.100309 0.110954 -0.106002 -0.102816 0.089042 0.107611 0.101157 -0.109087 -0.097003 0.102988 0.089033 0.107992 -0.110744 -0.110564 0.089054 0.095665 0.110968 0.110944 -0.110949 0.110976 0.102836 -0.110965 -0.110962 0.110920 0.110955 -0.089111 0.093054 -0.089046 -0.110976 0.089032 -0.099300 
0.100000 -0.060845 -0.100000 -0.100000 0.036608 -0.100000 -0.100000 0.100000 0.100000 -0.100000 -0.100000 -0.100000 0.100000 0.030315 -0.100000 -0.100000 0.100000 0.100000 0.100000 -0.100000 0.100000 0.100000 0.100000 0.100000 -0.087167 -0.100000 0.100000 -0.100000 0.100000 0.100000 0.100000 0.071011 
-0.100000 0.100000 -0.100000 0.100000 0.100000 -0.100000 0.100000 0.100000 -0.100000 -0.100000 0.100000 -0.100000 0.100000 0.100000 0.100000 -0.004837 -0.100000 0.100000 0.100000 -0.100000 -0.100000 0.100000 0.100000 0.100000 0.100000 -0.100000 -0.100000 0.100000 0.100000 -0.100000 -0.100000 -0.100000 
-0.100000 -0.100000 -0.100000 -0.100000 -0.100000 -0.100000 -0.100000 -0.100000 0.100000 0.100000 -0.100000 -0.100000 0.100000 0.100000 -0.057335 -0.100000 -0.100000 -0.100000 -0.100000 0.100000 0.100000 0.100000 -0.027226 -0.100000 0.100000 0.100000 -0.100000 0.100000 -0.100000 -0.100000 -0.100000 0.100000 
-0.100000 -0.074210 -0.100000 -0.100000 -0.100000 -0.100000 -0.033946 -0.100000 -0.100000 -0.100000 0.100000 -0.014778 0.100000 0.100000 0.100000 0.100000 -0.100000 -0.100000 -0.100000 -0.100000 0.100000 0.100000 -0.100000 -0.100000 -0.100000 -0.100000 -0.026655 0.020240 -0.100000 0.100000 -0.100000 0.100000 
-0.100000 0.100000 0.100000 0.100000 -0.100000 -0.100000 -0.100000 0.100000 -0.100000 0.100000 -0.100000 -0.100000 -0.100000 0.100000 -0.100000 -0.100000 0.100000 -0.100000 -0.100000 -0.100000 0.100000 0.100000 0.100000 -0.100000 -0.100000 0.100000 0.094635 -0.100000 0.100000 -0.100000 -0.100000 -0.100000 
-0.100000 0.100000 -0.100000 -0.100000 -0.100000 0.100000 0.100000 0.100000 0.100000 0.100000 0.100000 0.100000 0.100000 -0.100000 0.100000 0.100000 0.100000 0.090763 0.100000 0.100000 -0.100000 0.100000 0.100000 0.100000 0.100000 -0.100000 0.100000 0.100000 -0.100000 -0.100000 0.100000 0.100000 
-0.038304 -0.100000 -0.100000 0.100000 -0.100000 0.100000 0.100000 0.100000 -0.100000 -0.100000 -0.100000 0.100000 0.100000 -0.100000 0.100000 -0.100000 0.100000 0.022917 0.100000 -0.100000 -0.100000 0.100000 -0.100000 0.100000 -0.100000 0.100000 -0.100000 -0.100000 0.100000 -0.100000 -0.100000 -0.100000 
-0.070202 -0.100000 -0.100000 -0.100000 -0.100000 0.100000 -0.100000 0.100000 -0.100000 0.100000 0.100000 0.100000 0.100000 0.100000 0.100000 -0.100000 -0.100000 0.100000 0.100000 0.019078 -0.100000 0.100000 -0.100000 -0.100000 -0.100000 -0.100000 -0.100000 -0.100000 0.100000 0.100000 -0.100000 -0.100000 
-0.100000 0.100000 0.100000 0.100000 -0.100000 0.100000 -0.100000 -0.100000 -0.100000 0.100000 -0.100000 -0.100000 0.100000 -0.010547 -0.100000 -0.100000 0.100000 0.100000 -0.100000 -0.100000 -0.100000 -0.100000 -0.100000 0.100000 0.100000 0.100000 -0.100000 0.100000 -0.100000 0.100000 -0.100000 0.100000 
-0.100000 0.100000 0.100000 -0.100000 -0.100000 -0.100000 0.019810 -0.004670 -0.100000 0.100000 -0.100000 -0.100000 -0.100000 -0.100000 -0.085046 0.100000 0.100000 -0.100000 0.100000 0.100000 0.100000 -0.100000 0.100000 0.100000 -0.100000 0.100000 -0.100000 0.100000 0.100000 0.100000 -0.100000 -0.100000 
-0.100000 -0.100000 0.083335 -0.100000 -0.100000 -0.100000 0.100000 0.100000 0.100000 -0.013818 0.100000 0.100000 0.100000 0.100000 0.100000 -0.100000 -0.100000 -0.100000 0.100000 -0.087560 0.100000 -0.003469 0.100000 -0.100000 -0.100000 -0.100000 -0.100000 -0.095042 -0.100000 0.100000 -0.100000 0.100000 
-0.100000 0.100000 -0.100000 -0.100000 0.100000 0.100000 0.100000 -0.100000 0.100000 -0.100000 0.100000 -0.100000 -0.100000 -0.100000 0.100000 0.100000 0.100000 0.006634 0.100000 -0.100000 -0.100000 0.100000 0.100000 -0.058298 0.036807 0.100000 0.100000 -0.100000 -0.023004 0.100000 -0.100000 0.100000 
0.100000 0.100000 -0.100000 -0.100000 0.100000 0.100000 -0.100000 0.100000 0.100000 0.100000 0.100000 0.100000 0.100000 0.100000 -0.100000 0.100000 0.100000 0.100000 0.100000 0.100000 -0.075575 -0.100000 0.100000 0.100000 0.100000 -0.100000 -0.100000 -0.100000 0.100000 -0.100000 0.100000 -0.100000 
0.100000 -0.100000 -0.100000 -0.100000 0.100000 -0.100000 -0.100000 -0.100000 -0.100000 -0.100000 -0.059058 -0.100000 -0.100000 -0.100000 0.100000 -0.100000 0.100000 -0.088272 0.100000 0.100000 0.100000 0.100000 -0.089415 0.100000 -0.100000 0.100000 0.100000 0.100000 -0.100000 -0.100000 0.100000 0.100000 
-0.001410 -0.100000 -0.100000 0.100000 0.100000 -0.100000 0.100000 0.042041 -0.100000 -0.100000 0.100000 -0.100000 0.100000 -0.068505 -0.100000 0.014749 0.100000 0.100000 -0.100000 0.100000 0.100000 -0.100000 0.100000 -0.100000 -0.100000 0.100000 0.100000 -0.100000 0.029750 0.100000 -0.100000 -0.100000 
-0.100000 -0.038921 -0.100000 0.100000 0.069560 0.100000 -0.100000 -0.100000 0.100000 0.100000 -0.100000 0.100000 0.100000 0.100000 -0.100000 0.100000 -0.100000 0.100000 0.100000 -0.100000 0.100000 0.100000 -0.100000 0.100000 -0.009876 -0.100000 -0.100000 0.100000 -0.100000 0.054443 0.100000 -0.100000 
-0.100000 -0.100000 0.100000 0.100000 -0.100000 -0.100000 0.100000 0.100000 0.100000 -0.100000 0.100000 0.100000 0.100000 0.100000 0.100000 -0.100000 0.053390 -0.100000 -0.100000 -0.100000 -0.100000 -0.100000 0.100000 0.100000 -0.100000 -0.100000 0.100000 -0.100000 -0.100000 -0.100000 -0.100000 -0.100000 
0.097004 0.095120 -0.104995 0.095489 -0.095011 -0.095011 -0.103993 -0.104993 -0.095309 -0.104255 -0.104657 -0.095010 -0.104731 0.104991 -0.104993 -0.061521 -0.104602 0.095005 -0.104995 -0.097270 0.095371 -0.104695 -0.096946 -0.095009 -0.095348 0.104973 0.104996 -0.104167 0.097003 -0.095385 -0.096937 0.095540 
0.103996 0.088171 0.088002 -0.111801 0.111993 -0.088005 0.088644 -0.111999 -0.088020 0.021200 -0.111980 0.111996 -0.111587 -0.088002 0.088005 -0.088014 0.088067 -0.111998 0.088002 -0.098028 0.088024 0.088019 0.102003 0.111996 0.111968 0.111990 -0.088002 0.090272 0.103980 -0.088471 0.101998 -0.111791 
-0.095007 -0.111148 0.088998 -0.111634 0.111001 -0.089002 0.089153 -0.111266 0.110988 0.089046 0.088794 0.111000 0.054236 0.000981 -0.037820 0.110992 0.088585 0.088999 -0.111227 0.100982 -0.110984 0.059408 -0.098788 -0.089000 0.112962 0.112990 0.111177 0.089194 -0.095011 0.110839 -0.099001 -0.111204 
-0.093527 -0.133165 0.062619 0.067195 -0.062788 -0.062667 -0.133307 0.062610 0.027207 0.065981 -0.135745 0.137373 0.067907 -0.062775 -0.138216 0.137443 0.066566 -0.022332 -0.137333 0.116988 -0.137268 0.062528 -0.082978 -0.062682 -0.061235 -0.063317 -0.062639 0.069761 -0.093160 -0.064472 0.116898 -0.132602 
-0.083605 -0.018612 -0.160932 -0.142664 0.159572 0.160214 -0.141458 0.041708 0.159703 -0.142332 -0.146138 -0.039611 -0.141885 0.008889 -0.005710 -0.037951 0.052293 -0.161363 0.039261 0.146245 0.051761 0.042371 -0.054835 -0.039791 0.159821 -0.046159 0.160435 -0.140932 0.117733 0.159758 0.018837 -0.142444 
0.133353 0.022507 -0.204666 -0.175869 0.003198 0.033502 0.026578 0.002450 0.003355 -0.179948 0.010134 0.204474 -0.174584 0.093806 0.002738 0.005818 -0.177784 -0.005314 -0.205046 -0.010660 -0.195552 -0.000979 0.195348 0.004145 0.001201 0.184361 0.202933 -0.169565 0.129461 0.203768 -0.007998 0.022919 
-0.057339 -0.185599 -0.215210 -0.183405 0.124010 0.014328 -0.177700 -0.207852 0.013159 -0.187235 0.002569 0.214571 -0.182553 0.013427 -0.007267 0.216609 0.012889 -0.015829 -0.015154 -0.006268 -0.204697 -0.212512 0.207525 0.214323 0.211898 0.192782 0.214161 0.022212 0.143121 0.012407 0.200053 -0.185714 
-0.050469 0.027143 0.007644 -0.176356 -0.000805 -0.007830 0.037318 0.004190 -0.009615 0.026367 -0.188527 -0.007645 0.035502 0.190114 -0.197724 -0.005921 0.015086 0.006774 -0.193529 -0.033245 -0.186523 0.003586 -0.013494 0.191886 0.007213 0.012091 0.209087 0.030458 -0.044036 0.191786 0.177261 0.023391 
-0.062081 0.034898 0.023093 -0.095283 -0.016845 -0.023365 -0.155452 -0.183659 0.179657 -0.163023 0.030401 -0.022952 0.048122 0.174159 -0.186331 -0.021770 -0.180346 -0.177799 0.022679 0.166100 -0.173889 -0.179366 -0.028232 -0.023455 -0.000715 0.163829 0.200228 -0.171361 -0.057798 0.173833 -0.032912 0.034588 
0.139777 -0.175202 -0.193267 0.012439 0.198197 -0.006890 0.035244 -0.200646 -0.005347 0.024855 -0.185158 -0.008472 0.032727 0.189652 -0.010724 0.194004 -0.002811 -0.193927 0.006548 0.187777 0.013258 -0.195844 0.189547 -0.008862 0.232807 0.181426 0.029541 -0.190299 0.137008 0.190939 0.189773 0.002203 
0.128088 0.021992 -0.188656 0.003534 0.201813 -0.002945 0.031232 -0.203082 -0.002089 0.021488 0.015216 0.201303 -0.060876 0.197759 -0.202460 0.197606 0.013848 0.010501 0.003640 0.194192 -0.197197 0.001806 0.199701 0.000686 0.241147 -0.021177 0.039706 -0.193522 -0.090405 0.186808 0.187555 0.016547 
0.123670 -0.174171 -0.186481 0.016342 -0.007782 -0.012973 -0.163994 0.006786 -0.018042 -0.167227 0.027182 -0.001013 -0.005771 -0.004606 -0.180617 0.187490 0.025797 0.012728 0.006411 0.184087 -0.184168 0.000018 0.199093 -0.001421 0.219174 0.161333 0.020104 -0.174449 -0.088730 -0.013566 0.184713 0.020690 
0.114043 -0.162907 -0.167525 -0.172922 -0.024655 0.167831 0.050449 0.022095 -0.035303 -0.155880 0.047955 -0.017950 0.001031 0.179022 0.041401 0.168130 -0.158299 -0.102794 -0.173228 -0.032343 -0.167174 0.022376 0.180812 -0.018331 0.188134 0.144189 -0.010338 0.043193 0.099802 -0.032444 0.166491 -0.169900 
0.113853 0.059982 0.048290 -0.145333 0.159528 -0.048036 -0.128376 0.047378 0.148982 -0.140329 -0.022843 0.151940 0.067439 0.149836 -0.019354 0.152699 -0.140747 -0.152305 0.040290 -0.048869 0.053594 0.039587 -0.049938 -0.048382 -0.032912 0.143128 0.168678 0.052386 -0.086125 -0.048692 0.149658 0.056383 
0.123644 0.071651 0.056786 -0.125266 0.142970 -0.056847 0.084499 0.068174 -0.058659 0.069490 -0.118483 0.010143 0.082262 -0.058286 -0.128455 0.144358 0.076324 -0.047334 0.060606 -0.058220 0.057261 -0.139332 -0.059374 0.142912 0.142023 -0.030841 0.143220 -0.130426 -0.077190 -0.057663 0.139543 0.068329 
-0.081804 0.082625 -0.130430 -0.117988 0.129923 0.130084 0.087193 -0.123543 0.128685 -0.017864 -0.115247 -0.069818 -0.114186 -0.070406 0.076134 -0.068577 -0.117627 -0.130765 0.073031 0.126925 0.070055 0.072517 -0.073501 -0.069990 0.129151 -0.079634 0.130521 -0.122559 -0.081617 -0.070622 0.125359 -0.122014 
0.112985 -0.109148 -0.114847 0.090944 -0.085331 -0.085279 -0.104023 0.090473 -0.086262 -0.102226 -0.105596 0.078316 0.054069 -0.005604 0.087575 0.115447 0.089021 0.085036 -0.112412 -0.088139 0.085491 -0.109316 -0.088432 0.114611 -0.085536 0.113040 0.115073 -0.113117 -0.088379 -0.085766 -0.089375 -0.108929 
0.105999 0.094000 -0.105999 0.094000 -0.094002 -0.094002 0.070784 -0.106000 0.105951 0.094066 -0.105980 0.105999 0.094184 -0.094001 0.094001 0.106000 -0.105924 0.062753 0.094001 -0.105985 -0.105960 -0.106000 -0.090627 -0.094001 0.105996 0.105998 -0.094000 -0.105696 -0.094001 0.105994 -0.101929 -0.106000 
0.105993 -0.105997 0.094004 -0.105997 0.105984 -0.047023 -0.105263 0.094002 -0.094385 0.094462 0.075177 -0.094011 -0.105423 -0.094004 -0.105993 -0.094003 -0.105686 0.094004 0.094004 -0.105961 -0.105965 -0.105997 -0.095587 0.105992 -0.094026 0.105988 -0.094004 0.094251 -0.094004 0.105965 -0.101894 -0.105997 
-0.100000 -0.100000 -0.100000 -0.100000 -0.100000 -0.100000 0.100000 -0.100000 -0.049877 0.100000 0.100000 0.100000 -0.100000 -0.100000 -0.100000 0.100000 0.100000 0.100000 -0.100000 -0.100000 -0.100000 -0.100000 0.100000 0.100000 0.100000 0.100000 -0.100000 -0.100000 -0.100000 0.029548 0.100000 0.012229 
-0.100000 0.100000 0.025962 0.090051 0.100000 0.011296 0.100000 0.100000 -0.100000 -0.100000 -0.100000 0.100000 -0.100000 0.100000 0.100000 -0.100000 0.096200 -0.100000 0.100000 0.040943 0.100000 -0.100000 0.100000 -0.100000 -0.100000 0.100000 -0.100000 0.100000 -0.100000 0.100000 -0.100000 0.100000 
0.100000 -0.100000 0.100000 -0.100000 0.100000 -0.077681 0.100000 0.100000 0.100000 -0.100000 -0.100000 0.100000 0.100000 -0.100000 -0.022666 -0.100000 -0.100000 0.100000 0.100000 -0.100000 0.100000 -0.100000 -0.100000 -0.100000 0.100000 -0.026939 0.082288 0.100000 0.100000 0.100000 -0.100000 -0.100000 
-0.100000 0.100000 0.100000 -0.100000 0.100000 0.100000 -0.100000 0.100000 0.100000 0.100000 0.100000 0.100000 -0.100000 0.100000 -0.100000 0.100000 -0.100000 0.100000 0.100000 0.100000 -0.100000 0.100000 0.100000 -0.100000 0.100000 -0.100000 0.100000 0.100000 -0.100000 -0.100000 -0.100000 0.100000 
-0.100000 -0.100000 -0.100000 -0.100000 0.100000 -0.100000 0.100000 0.100000 0.100000 -0.100000 0.100000 -0.100000 0.100000 0.100000 -0.100000 0.100000 -0.100000 0.051186 0.024859 0.100000 0.100000 -0.100000 -0.100000 -0.100000 0.100000 -0.100000 -0.100000 0.100000 0.100000 -0.100000 0.100000 -0.100000 
-0.075409 0.100000 0.100000 -0.100000 -0.100000 -0.100000 -0.100000 -0.100000 -0.100000 0.004020 -0.074558 -0.100000 -0.100000 -0.100000 0.100000 -0.100000 0.100000 -0.100000 -0.063310 -0.100000 -0.100000 0.100000 0.100000 -0.100000 -0.100000 -0.100000 0.100000 0.100000 0.100000 0.100000 0.100000 0.100000 
-0.103211 0.095994 -0.007271 0.096010 -0.094436 -0.094419 0.096038 -0.103977 -0.094969 -0.103992 0.095941 -0.094464 -0.104019 0.105204 0.095442 -0.094276 -0.104347 -0.105551 0.094400 0.105509 0.094775 0.094270 -0.094792 0.105417 0.105504 -0.095192 -0.094401 -0.104899 0.096881 0.105329 0.105119 0.094417 
-0.097001 -0.102999 0.102997 0.097102 -0.102999 -0.102999 0.097511 -0.102999 0.097005 0.097159 -0.102887 0.101103 -0.101003 0.102999 0.102997 0.094162 -0.097004 0.102993 -0.097005 0.097001 0.097542 -0.102996 0.102995 0.102999 -0.102999 0.097001 0.097013 -0.053372 -0.097001 -0.102999 -0.102999 -0.102903 
0.102656 -0.057563 -0.101777 -0.107515 0.101749 -0.098221 0.094954 0.092160 0.101689 0.094191 0.093910 -0.093987 0.094662 -0.043659 0.098628 0.101847 -0.101830 -0.101819 -0.101815 0.101743 0.093409 0.092191 0.107637 0.107749 -0.098321 -0.098718 0.101806 0.098767 0.100256 -0.098259 -0.098387 -0.106765 
0.101591 -0.111424 -0.108622 -0.007947 -0.084256 0.108591 -0.109142 -0.110595 0.106374 0.090964 0.084277 -0.091571 -0.007333 -0.084933 -0.110889 -0.085766 0.090199 -0.108403 0.091404 -0.087522 0.091826 0.084344 -0.092132 -0.091730 0.115720 0.003445 -0.084218 0.091934 0.101688 -0.091637 -0.095232 0.088760 
-0.093959 -0.146451 -0.137419 0.057040 -0.046665 -0.028334 0.066011 0.054448 0.136848 0.056192 -0.151365 0.137518 0.056980 -0.049503 0.058260 -0.055556 -0.145545 0.062516 0.062571 -0.006422 0.064785 0.046671 0.127776 0.135259 0.149433 -0.054441 0.153080 -0.141292 -0.100176 0.136174 0.125168 0.053770 
-0.076847 0.041955 0.045295 -0.151501 0.078880 0.152918 -0.144748 0.037831 -0.048215 -0.153131 -0.066018 -0.045077 -0.154571 0.166643 0.044712 0.161251 -0.156647 -0.154967 0.045324 -0.048853 -0.128335 -0.168289 -0.052297 0.154563 0.164045 -0.062330 -0.031301 0.053064 -0.109392 -0.049932 0.141950 0.045376 
-0.090856 -0.016822 -0.194112 -0.218393 0.230652 0.099021 0.004751 -0.151640 -0.012367 -0.203841 -0.118607 -0.006122 -0.206342 0.030654 -0.022222 0.006454 -0.219975 0.008001 -0.014287 -0.005383 -0.187730 -0.127192 -0.016429 0.201647 0.253633 0.202977 0.056193 -0.201213 -0.083693 0.188646 0.170555 -0.009983 
-0.065157 -0.244068 -0.051989 -0.264958 0.277644 0.046136 -0.022034 -0.287424 0.247913 -0.038450 -0.070794 0.249898 -0.235807 0.078031 -0.070424 0.255189 -0.267273 -0.050629 -0.077036 0.030341 -0.234712 -0.291198 0.231445 0.247384 0.319275 0.055166 0.326608 -0.046565 0.136749 0.242651 0.218733 -0.046825 
0.145458 -0.280328 -0.273536 -0.318674 0.319813 0.234764 -0.046664 -0.150533 0.063514 -0.267605 -0.317551 0.068346 -0.072411 0.100365 -0.331295 0.291114 -0.122810 -0.285949 -0.323685 0.060302 -0.050593 -0.342980 0.061791 0.067922 0.166063 0.055342 0.175299 -0.291462 0.148258 0.055089 0.245387 -0.281521 
0.175356 -0.302666 -0.125023 -0.150007 0.337861 0.122571 -0.244218 -0.191046 0.297594 -0.287768 -0.190469 0.086850 -0.305722 0.108072 -0.382105 0.141870 -0.358633 -0.119829 -0.374137 0.071558 -0.251271 -0.382187 0.062603 0.092621 0.195329 0.114911 0.400194 -0.145130 -0.012484 0.292069 0.083210 -0.230121 
0.156074 -0.118006 -0.137654 -0.280266 0.153716 0.323690 -0.236228 -0.411541 0.195329 -0.293246 -0.192052 0.309642 -0.133248 0.319284 -0.194304 0.341860 -0.402669 -0.203016 -0.388607 0.291614 -0.106639 -0.213275 0.073302 0.283376 0.225571 0.108804 0.419365 -0.181536 -0.070613 0.073546 0.042370 -0.348032 
-0.013941 -0.115867 -0.299674 -0.398899 0.335727 0.305726 -0.232339 -0.204060 0.265526 -0.228076 -0.382420 0.069597 -0.316797 0.297550 -0.201456 0.319781 -0.253930 -0.107706 -0.189859 0.286132 -0.012120 -0.235127 0.252373 0.059680 0.243038 0.337782 0.217543 -0.377991 -0.012645 0.247685 0.215869 -0.352388 
0.183894 -0.213969 -0.023860 -0.358947 0.085866 0.047099 -0.174710 -0.198513 0.107839 -0.030551 -0.256614 0.045915 -0.073518 0.019732 -0.380824 0.275918 -0.131156 -0.019788 -0.319732 0.023898 -0.053650 -0.363616 0.175895 -0.018169 0.389799 0.130025 0.381773 -0.315468 -0.011701 0.187879 0.003938 -0.316295 
0.153931 -0.271904 -0.205829 -0.179432 0.067973 0.001968 -0.210662 -0.388456 0.215839 -0.212369 -0.144037 -0.042060 -0.191101 0.013608 -0.183083 0.261906 -0.146578 -0.195919 -0.297911 0.195967 0.068146 -0.312797 0.187870 0.175911 0.389248 0.167171 0.185815 -0.353112 -0.013976 -0.014096 0.199915 -0.327657 
-0.035766 -0.321484 -0.031814 -0.404069 0.295800 0.035803 -0.020653 -0.205849 0.251663 -0.238270 -0.343813 -0.000232 -0.291976 0.217732 -0.381489 0.261798 -0.360879 -0.210780 -0.295649 0.223959 0.050257 -0.379467 0.005602 0.221197 0.375732 0.375301 0.211587 -0.167261 -0.010643 0.203786 0.134439 -0.352937 
-0.079591 -0.116550 -0.275430 -0.194112 0.325283 0.074429 -0.071996 -0.350343 0.299012 -0.077782 -0.164283 0.255459 -0.302048 0.292640 -0.366498 0.309361 -0.356872 -0.055501 -0.328613 0.069312 -0.213122 -0.199574 0.247445 0.081303 0.379184 0.320587 0.411027 -0.358644 0.127420 0.065384 0.291050 -0.343678 
0.079498 -0.338121 -0.277065 -0.187000 0.127290 0.297398 -0.101896 -0.156732 0.332646 -0.135734 -0.115826 0.285426 -0.073731 0.298424 -0.333051 0.097431 -0.146101 -0.211679 -0.152141 0.073442 -0.266534 -0.192427 0.071010 0.099192 0.369623 0.103088 0.392812 -0.346494 -0.095389 0.297292 0.109062 -0.157279 
0.093381 -0.327570 -0.314320 -0.351130 0.152932 0.123350 -0.089214 -0.200183 0.165909 -0.242432 -0.106107 0.198802 -0.280779 0.123044 -0.106067 0.347460 -0.344550 -0.155122 -0.230037 0.313227 -0.110490 -0.185982 0.316558 0.320859 0.361926 0.282568 0.176394 -0.323951 0.069374 0.323041 0.328212 -0.140804 
-0.167317 -0.104092 -0.343238 -0.323594 0.361169 0.153696 -0.092696 -0.111015 0.176883 -0.111768 -0.279683 0.156893 -0.283618 0.128525 -0.288440 0.351988 -0.307192 -0.376587 -0.350975 0.227228 -0.347382 -0.362415 0.352222 0.348163 0.359400 0.266263 0.273516 -0.277988 -0.164934 0.351772 0.358271 -0.119905 
0.068376 -0.253907 -0.243277 -0.261291 0.325236 0.114503 -0.059161 -0.062133 0.316708 -0.262893 -0.237870 0.323016 -0.240877 0.308989 -0.049800 0.108811 -0.273148 -0.130963 -0.299747 0.313466 -0.113206 -0.294509 0.313802 0.303248 0.120866 0.246422 0.112061 -0.072746 -0.145778 0.119109 0.316787 -0.261300 
0.093633 -0.008819 -0.240227 -0.016533 0.248891 0.050177 -0.215690 -0.211382 0.197126 -0.208893 -0.199547 0.246741 -0.205934 0.235579 -0.001612 0.043443 -0.222605 -0.044637 -0.233798 0.243647 -0.110988 -0.216910 0.141531 0.039939 0.048248 0.004936 0.240690 -0.223164 -0.132072 0.047809 0.230283 -0.121177 
0.070760 -0.163193 -0.044513 -0.158698 0.180308 0.181389 -0.158460 -0.151983 0.171107 0.047959 -0.148911 -0.019468 -0.149257 -0.024827 -0.160615 0.182506 -0.161098 -0.180221 -0.168803 0.171909 -0.178897 0.040915 0.045323 0.030701 -0.016650 -0.006746 0.181608 0.027835 0.088840 0.143085 0.169049 0.041278 
-0.085019 -0.112237 0.084369 -0.112606 0.115670 0.105443 0.087946 -0.112211 -0.084986 0.088019 -0.112327 0.115644 0.087944 0.115365 0.083107 0.115899 0.084328 -0.115674 -0.115412 0.115732 -0.115491 -0.115485 0.115353 -0.084427 0.119640 -0.081338 0.117701 0.081145 -0.093045 0.115516 0.115074 -0.112572 
-0.098000 0.101994 -0.098000 0.101999 -0.102000 -0.102000 -0.098004 0.101994 0.098000 -0.098004 -0.098000 -0.102000 0.102000 -0.102000 0.098000 0.098000 -0.098000 -0.098003 -0.098000 -0.102000 0.102000 -0.098007 -0.101995 0.098000 -0.098000 -0.098000 -0.099997 0.098000 0.077516 -0.102000 0.098000 0.102000 
0.100000 -0.087113 0.100000 -0.100000 0.100000 0.100000 0.100000 -0.100000 0.100000 -0.100000 0.100000 0.100000 0.100000 -0.100000 0.100000 -0.100000 -0.100000 -0.100000 -0.100000 0.100000 -0.100000 0.100000 -0.100000 -0.100000 -0.100000 -0.100000 0.100000 -0.100000 0.100000 -0.100000 -0.100000 -0.100000 
0.100000 -0.100000 0.100000 -0.100000 -0.100000 -0.100000 0.100000 0.100000 -0.100000 -0.100000 0.100000 0.100000 -0.100000 0.100000 -0.100000 -0.100000 0.100000 0.100000 -0.100000 -0.100000 -0.100000 -0.100000 -0.100000 0.100000 -0.100000 -0.100000 -0.100000 0.100000 -0.100000 0.100000 -0.100000 -0.100000 
0.100000 0.100000 0.100000 -0.100000 0.058540 -0.100000 -0.100000 0.100000 -0.089432 0.100000 -0.100000 -0.084681 0.100000 -0.100000 -0.100000 0.100000 0.100000 -0.100000 0.100000 -0.100000 -0.015091 -0.100000 -0.100000 0.100000 -0.100000 -0.100000 0.100000 -0.100000 -0.100000 0.100000 0.100000 0.100000 
-0.100000 -0.100000 -0.100000 -0.100000 -0.100000 0.100000 0.100000 0.100000 -0.100000 -0.100000 0.100000 -0.100000 0.100000 0.100000 0.100000 -0.100000 0.100000 -0.100000 -0.100000 -0.059381 0.065049 -0.100000 -0.100000 0.100000 0.100000 -0.100000 0.100000 0.100000 0.100000 -0.100000 -0.100000 0.100000 
0.100768 0.095802 0.097236 0.092527 0.108925 -0.097065 0.097694 -0.104188 0.102163 0.097466 0.093361 -0.097343 0.095929 0.105686 -0.106459 -0.093915 0.095174 -0.102589 -0.103466 -0.096746 0.097837 0.093681 0.105475 -0.097459 -0.090540 0.108754 0.109488 0.028272 -0.043949 -0.094453 0.102162 0.091368 
-0.106444 0.092952 -0.103314 -0.107033 -0.093111 0.103352 0.093476 -0.108387 -0.093231 0.091116 -0.107562 0.111359 -0.105540 0.002857 -0.102562 -0.096853 -0.102709 0.086417 -0.103072 -0.096997 0.087481 0.088301 -0.090814 0.109300 0.103309 0.102972 -0.096638 -0.102645 -0.102671 -0.093315 -0.092845 0.092493 
-0.095042 0.096873 0.104216 0.096492 -0.073159 -0.104376 -0.109076 0.094968 0.099343 0.092375 0.092775 -0.092795 0.092701 0.116366 0.106766 -0.101559 -0.100130 -0.099622 0.105227 0.097082 0.088132 0.092112 0.105610 0.105440 0.095671 -0.081808 -0.104089 0.105128 -0.093015 -0.096890 0.047736 -0.003581 
-0.088809 0.066885 0.097182 -0.134831 0.131852 -0.085233 -0.111255 -0.133173 0.095764 0.085166 0.069426 0.103858 0.077040 -0.069441 0.080400 0.064077 0.066249 0.100800 -0.106347 -0.090236 0.096644 -0.128844 -0.092546 -0.091421 -0.056999 -0.072744 -0.051157 -0.117372 0.090635 0.112290 0.111805 -0.133303 
-0.033656 -0.205974 0.139909 -0.029345 0.002640 -0.119038 -0.150336 -0.064878 0.067986 -0.155512 -0.206616 -0.145905 -0.136869 -0.030737 -0.173183 -0.116413 -0.009088 -0.047126 0.105244 -0.112219 -0.042507 -0.183638 0.079298 0.069485 0.031848 0.066100 0.059514 -0.002305 -0.020406 -0.111626 -0.109049 -0.008048 
0.094008 -0.083785 -0.077074 -0.106652 0.045328 0.102239 -0.169285 -0.086870 0.100311 -0.046011 -0.029414 0.055564 -0.123942 -0.036983 -0.043160 0.087160 -0.254953 -0.075396 0.047888 0.092151 0.163605 -0.204196 -0.110918 0.130970 0.286751 0.024998 0.348338 -0.272312 0.017371 -0.123734 -0.084931 -0.282307 
0.163486 -0.152358 0.059006 -0.374623 0.286305 -0.003024 -0.206433 -0.351842 0.175017 -0.207004 -0.083156 -0.097546 -0.131816 0.032151 -0.133483 0.158527 -0.293344 -0.108201 -0.066909 0.166138 0.127629 -0.335468 -0.058399 0.185604 0.333789 0.028623 0.416971 -0.139362 0.188349 -0.068114 -0.059946 -0.354122 
0.192473 -0.151265 0.064552 -0.176694 0.065659 0.214037 0.040303 -0.357137 0.185956 0.013520 -0.073713 0.095690 -0.073414 -0.041868 -0.154832 0.154022 -0.037155 -0.123190 -0.096205 0.158594 -0.078167 -0.325603 0.113482 0.021937 0.277734 -0.007904 0.411781 -0.128792 0.185499 0.113855 -0.049894 -0.165801 
-0.004048 -0.324700 0.105927 -0.147822 0.239948 0.003756 0.077812 -0.348180 0.195995 -0.159691 -0.015634 0.090014 -0.115095 -0.045993 -0.318976 -0.032731 -0.183827 0.097979 -0.285923 0.182260 0.155969 -0.337641 -0.016578 0.032045 0.042076 0.195944 0.371938 -0.095898 -0.007860 0.061014 0.188042 -0.122041 
0.003420 -0.355021 -0.139986 -0.359938 0.063977 0.023986 0.124026 -0.212031 0.190034 0.038068 -0.065891 -0.111965 0.042310 -0.066040 -0.342057 0.227950 -0.171750 -0.123986 -0.304271 -0.021495 -0.015864 -0.160005 -0.014032 0.216001 0.020017 0.004014 0.373992 -0.049930 0.249886 0.090643 0.155984 -0.234970 
0.157998 -0.353841 -0.078631 -0.126863 0.274185 -0.012042 0.151980 -0.407998 -0.001996 0.044381 -0.042115 -0.151995 0.012239 0.131870 -0.212452 0.001793 0.046013 -0.114036 -0.303950 -0.006075 0.126517 -0.334004 0.121998 -0.006002 0.233987 0.155202 0.133984 -0.197991 0.101500 -0.131992 0.136022 -0.345940 
-0.017545 -0.091978 0.044034 -0.329975 0.060003 -0.055968 0.124005 -0.388025 0.180012 0.082039 -0.063994 -0.154062 -0.198040 -0.019185 -0.297929 0.008045 0.003429 0.083985 -0.107969 -0.023996 0.014038 -0.341933 0.068043 0.117012 0.039994 0.227942 0.337990 0.017977 0.289809 0.082029 -0.076003 -0.143954 
0.159994 -0.093859 -0.144006 -0.062069 0.135653 -0.032004 0.104011 -0.163980 0.185997 0.071995 -0.047999 -0.130001 -0.043961 0.108008 -0.177781 0.182013 -0.156001 -0.130002 -0.273956 -0.028014 0.204031 -0.323992 0.046008 0.150005 0.014116 0.215979 0.105991 -0.219985 0.273993 -0.103995 0.122004 -0.307965 
-0.014070 -0.309915 -0.157996 -0.059992 0.301832 -0.056004 0.090015 -0.134014 0.148791 -0.157988 -0.011995 0.137973 -0.240505 0.151929 -0.233997 -0.050002 0.081993 -0.172044 -0.054021 -0.093995 0.044115 -0.332006 -0.160000 -0.000010 0.229993 0.039994 0.254004 -0.195378 0.285994 0.113987 -0.021986 -0.268008 
-0.004037 -0.336634 0.079998 -0.240026 0.288007 -0.064003 0.050004 -0.305919 0.232005 0.005983 -0.177147 0.162001 -0.105940 0.169996 -0.188018 0.139997 -0.093986 0.032003 -0.213978 0.125959 -0.007975 -0.145993 -0.160024 0.000008 0.005996 0.245983 0.156879 -0.234010 0.260015 -0.075839 -0.026006 -0.281991 
0.009478 -0.157980 -0.019806 -0.047995 0.279997 0.235993 0.022001 -0.276008 0.089995 -0.255994 -0.188019 -0.022002 -0.130017 0.187979 -0.201999 -0.028003 0.090009 0.039996 -0.062336 0.181993 -0.070018 -0.117967 0.075990 0.038001 0.219559 0.222010 0.105977 -0.053976 0.225986 0.193994 0.261998 -0.263999 
0.118016 -0.339964 -0.197960 -0.047987 0.306084 0.259987 -0.183991 -0.054145 0.309984 -0.055993 0.013994 0.136546 -0.288106 0.163985 -0.235908 0.204100 0.056028 -0.225987 -0.227979 -0.000050 0.089955 -0.317948 0.104004 0.243997 0.222078 -0.001835 0.092001 -0.242006 0.153915 0.020012 0.244010 -0.081990 
0.065991 -0.131793 -0.064766 -0.274028 0.299987 0.077983 -0.219917 -0.086216 0.322012 -0.117934 -0.191949 0.252570 -0.331174 0.181932 -0.192009 -0.003991 -0.155981 -0.022297 -0.209893 0.045959 -0.180159 -0.063953 -0.063981 0.064093 0.025989 -0.003736 0.094687 -0.273960 -0.102082 0.283930 0.296045 -0.287981 
0.025139 -0.102088 -0.172054 -0.289909 0.107943 0.069999 -0.073469 -0.205359 0.271929 -0.333585 -0.191863 0.099951 -0.099279 0.213724 -0.178421 0.216312 -0.050719 -0.251952 -0.207270 0.120396 -0.059846 -0.037821 0.014009 0.299962 0.043951 0.168606 0.061905 -0.235508 0.084292 0.303920 0.223399 -0.296127 
0.044184 -0.054895 -0.023763 -0.029508 0.342735 0.290767 -0.124583 -0.192958 0.015988 -0.346979 -0.192716 0.147855 -0.298118 0.215693 0.064594 0.227557 -0.212845 -0.267785 -0.162088 0.077714 -0.070022 -0.075274 0.067807 0.254002 0.065470 0.239712 -0.000545 -0.026364 0.036816 0.320024 0.105426 -0.214456 
0.046970 -0.031842 -0.206881 -0.028878 0.176382 0.247075 -0.094254 -0.213894 -0.005551 -0.104927 -0.221909 0.083519 -0.047426 0.008832 -0.185273 -0.012213 -0.023218 -0.080906 -0.163732 0.228087 -0.022672 -0.249868 0.241631 0.022547 0.271219 0.252460 0.229178 -0.043245 -0.086316 0.091138 0.288148 -0.024297 
0.086313 0.012192 -0.209828 -0.024693 0.086321 0.218514 -0.029816 0.029949 0.166851 -0.047771 -0.173815 0.266753 -0.214790 0.014266 -0.112935 0.173863 -0.030928 -0.040167 -0.146314 0.016674 -0.024579 -0.027864 0.235423 0.033572 0.236630 0.010390 0.118532 -0.196089 0.063135 0.062555 0.257485 0.015318 
-0.076753 -0.140026 0.043032 0.063464 -0.022497 0.153128 0.035617 0.065108 0.131743 -0.160110 0.067071 0.171263 -0.155753 0.151632 0.079847 -0.061642 0.061314 0.028151 -0.127466 0.153204 -0.155948 0.034163 0.154866 -0.048858 -0.042741 -0.042765 -0.059916 0.051204 0.086818 -0.032829 -0.027958 0.062233 
0.107033 0.083500 -0.109660 -0.120720 -0.089236 0.117630 -0.117355 0.083994 -0.095446 -0.116065 -0.120682 0.118755 -0.098794 0.120476 0.085566 -0.080977 0.083249 -0.109743 -0.109964 -0.082115 0.080460 0.082472 -0.079322 0.120732 -0.077242 0.025790 -0.079231 -0.110320 0.093614 -0.042689 0.109228 0.080515 
-0.100000 0.100000 -0.100000 -0.100000 0.100000 0.100000 -0.100000 0.100000 -0.100000 0.100000 0.100000 0.100000 0.100000 0.100000 0.100000 -0.100000 -0.100000 -0.100000 0.100000 0.100000 -0.100000 -0.100000 -0.065849 -0.100000 -0.100000 0.100000 -0.100000 -0.100000 -0.100000 0.100000 -0.100000 0.100000 
0.100000 0.100000 0.100000 0.100000 -0.100000 -0.026228 0.100000 -0.100000 -0.100000 0.100000 -0.100000 0.100000 -0.100000 0.100000 -0.100000 0.100000 0.100000 0.100000 0.100000 -0.100000 0.100000 0.100000 -0.100000 0.100000 -0.100000 0.100000 0.100000 0.100000 -0.100000 0.100000 0.100000 -0.100000 
0.100000 -0.057565 -0.100000 0.100000 -0.100000 0.100000 -0.100000 0.100000 -0.100000 -0.100000 -0.100000 -0.100000 -0.100000 -0.100000 -0.100000 0.100000 -0.100000 -0.100000 0.100000 0.100000 -0.100000 -0.100000 0.100000 0.100000 -0.100000 -0.100000 -0.088515 0.100000 0.100000 0.100000 0.100000 0.100000 
0.087152 -0.108936 0.093593 -0.095950 -0.112750 -0.087417 -0.087106 -0.101221 0.021102 0.112884 -0.087149 -0.112655 0.112665 0.087160 0.087147 -0.109909 -0.087090 0.112580 -0.112840 0.092842 0.112650 0.102288 -0.111660 0.112888 -0.112892 0.087108 0.112634 -0.095363 0.087343 0.094278 -0.087112 0.089078 
-0.099184 0.094394 -0.089329 -0.110772 -0.099495 0.023934 -0.090238 -0.105396 0.099222 -0.090435 -0.100278 0.089248 -0.094774 0.096238 0.090508 -0.105427 -0.040388 0.110788 -0.099682 0.089890 -0.089144 0.094657 -0.107252 0.099242 -0.099193 -0.099194 -0.089222 -0.103013 -0.099195 0.092160 -0.100802 -0.110328 
-0.106691 0.094733 0.114363 0.096340 0.106801 -0.093294 0.097697 -0.108626 0.098809 0.098160 -0.099324 -0.101396 -0.102110 0.101859 0.097220 0.028262 -0.008888 -0.089060 -0.099942 0.099194 -0.096656 -0.105607 0.099550 -0.091611 -0.095774 0.098152 -0.093677 -0.106631 0.094228 0.102842 -0.093368 0.080572 
-0.129319 -0.144447 -0.033925 -0.147683 0.077125 0.148712 0.128300 0.052834 0.124993 -0.072577 0.132682 0.041574 0.115351 0.065219 -0.156593 -0.132571 -0.086041 -0.043368 0.052180 -0.129123 -0.044347 0.089221 -0.121421 0.161725 -0.111364 0.076578 -0.039201 0.060574 0.084189 -0.041327 -0.043821 -0.149027 
0.001261 -0.213111 0.237511 -0.230475 -0.147202 0.138343 0.163194 -0.189367 0.136303 0.156372 0.161841 -0.222828 0.153616 -0.142021 0.017480 0.022271 0.141654 0.239290 0.051285 0.032632 0.034838 0.096014 0.020531 -0.007706 -0.123465 0.042538 0.062532 -0.196294 -0.142546 -0.181612 0.001606 -0.219777 
-0.108598 -0.104621 0.042589 -0.104175 0.138276 -0.061397 0.148642 -0.256294 -0.054202 -0.038492 -0.015262 -0.128959 -0.003625 -0.148328 -0.232270 -0.176473 -0.086053 0.039615 0.031031 0.013132 0.267709 0.007784 -0.007852 0.155472 -0.068228 0.098726 0.339049 -0.260530 0.129929 -0.237842 0.130703 -0.099692 
-0.115976 -0.111278 -0.008023 -0.310956 -0.021923 0.096634 0.116009 -0.288680 -0.039301 0.099882 0.088005 0.002050 -0.024905 -0.166045 -0.073886 0.066031 -0.123826 -0.018730 -0.033541 0.138548 0.048016 -0.270302 0.072870 0.179636 0.146249 0.094032 0.179421 -0.315512 -0.048131 -0.200510 -0.016129 -0.314563 
0.113971 -0.283482 0.168015 -0.265847 -0.004014 0.213974 0.144005 -0.044075 -0.056009 -0.043928 -0.149800 0.004024 0.139986 0.044008 -0.263970 -0.084117 0.068005 0.154037 -0.219460 -0.015932 0.215887 -0.044573 0.091762 0.183959 0.161995 -0.105994 0.324040 -0.087986 -0.019143 0.055792 0.160551 -0.255638 
-0.044000 -0.211935 0.169979 -0.039959 -0.017995 -0.036063 0.184006 -0.248118 0.152006 0.139991 0.036007 -0.188006 -0.046021 -0.162012 -0.271827 -0.108440 0.066263 0.162008 -0.124846 -0.060010 0.236045 -0.228023 -0.094044 -0.024004 0.151993 0.122021 0.317999 -0.090065 0.028027 0.022006 -0.065998 -0.181900 
0.138023 -0.007992 -0.061998 0.022024 0.183984 -0.066548 -0.015993 -0.221127 -0.024002 -0.053964 -0.149706 0.044000 0.116016 -0.110835 -0.257999 -0.097997 0.139993 -0.034019 -0.219990 -0.085957 0.059799 -0.183819 -0.137991 0.001994 0.158001 -0.090011 0.327996 -0.224000 0.234001 -0.130020 0.120024 -0.176004 
0.056989 -0.129621 -0.095997 -0.161999 0.187925 -0.110020 -0.006000 -0.143991 -0.038020 -0.021804 -0.156002 -0.192011 -0.050014 -0.167977 -0.071987 0.127994 0.131996 0.139997 -0.043999 0.020012 0.255994 -0.219997 -0.164001 0.191992 0.143998 0.142003 0.071997 0.031994 0.085984 -0.060445 -0.071993 0.018010 
0.222005 -0.145989 0.103990 0.080014 0.170001 -0.114000 0.227994 -0.326002 0.094012 -0.034003 -0.179995 -0.184008 -0.069872 0.014039 -0.231999 -0.083963 0.131997 -0.058003 -0.024000 0.021998 0.154263 -0.211998 -0.189999 0.145986 -0.069987 -0.021995 0.066005 0.066021 0.098097 -0.165999 0.085999 -0.134009 
0.204008 -0.116010 -0.107868 0.107999 -0.034001 -0.121996 0.013996 -0.326012 -0.176048 -0.028048 0.008006 -0.154006 -0.096006 -0.169997 -0.042001 0.195998 0.110008 0.122001 -0.031973 -0.154002 0.077999 -0.004005 -0.225996 0.037136 -0.016544 -0.016003 0.091997 -0.055993 0.200206 -0.153998 -0.122038 0.076002 
0.277768 -0.154000 -0.090023 -0.005054 0.150001 -0.152000 0.197997 -0.088019 0.089995 -0.050000 -0.170002 0.073893 0.055965 -0.084960 -0.013997 0.148985 0.102004 -0.111992 0.023978 -0.221974 0.068001 -0.189999 -0.063999 0.179998 0.154100 -0.030000 0.295999 0.235995 0.308000 0.036011 -0.125995 -0.100004 
0.103997 0.053997 0.059998 -0.092000 -0.001992 -0.183999 0.157996 -0.302331 0.104000 0.076007 -0.119899 -0.101989 -0.241992 -0.027999 -0.009994 -0.020002 0.124007 -0.127995 0.059997 -0.035995 0.066008 0.003996 -0.089997 0.180005 0.117998 0.175997 0.332001 0.221997 0.147999 0.018005 0.041986 0.091999 
0.093999 0.000008 0.056001 0.086004 0.231993 0.056000 -0.075999 -0.089997 0.154969 0.045999 -0.144008 -0.010000 -0.305991 -0.016002 -0.172000 -0.017999 -0.081997 0.016003 0.083993 0.018005 0.251993 -0.223997 -0.099980 0.227418 -0.060001 0.170001 0.331992 0.170004 0.153997 -0.156023 0.038742 -0.133998 
0.228792 -0.044000 0.044003 -0.159998 0.242007 0.125994 0.113999 -0.066006 -0.012004 0.035992 -0.191997 0.037993 -0.336000 0.188023 0.081908 -0.025993 -0.079981 0.021999 0.086020 0.062004 0.029995 -0.029518 -0.058000 0.044000 0.136002 0.149999 0.099998 -0.045999 0.177877 -0.101987 -0.087999 -0.153998 
0.155589 -0.224042 -0.182007 -0.147997 0.281993 0.178020 -0.139978 -0.075989 0.199998 -0.183991 0.003999 0.005998 -0.098005 0.119986 -0.116010 0.017995 -0.084004 -0.016038 -0.179974 -0.055996 0.192003 -0.239994 0.030000 0.046241 0.144031 0.152001 0.277376 -0.068002 0.097997 0.175994 0.158001 -0.182009 
0.149996 -0.047256 -0.004001 0.052001 0.236532 0.236001 0.089963 -0.265996 -0.004014 -0.024221 -0.057985 0.190005 -0.300163 -0.134001 0.078028 0.059995 0.082005 -0.267998 0.008014 0.172007 -0.064007 -0.050004 0.116011 0.011998 -0.036004 0.159988 0.021997 0.110426 0.072009 0.002000 -0.021996 0.020004 
0.070002 0.065950 -0.251918 -0.056011 0.317995 0.290006 -0.129998 -0.020001 -0.006008 0.025999 -0.220002 0.014000 -0.265985 0.019999 -0.056818 0.243990 -0.091982 -0.101997 -0.005994 0.013996 0.119993 -0.229987 -0.065999 -0.062002 0.157996 0.212025 0.124030 0.145993 0.096458 0.254002 0.082678 -0.127355 
-0.182016 0.117993 -0.282004 -0.038008 0.138000 0.301984 0.013996 -0.132006 -0.055977 -0.216000 -0.201984 0.220012 -0.269957 -0.187981 0.148004 0.258000 -0.052205 -0.125992 0.027054 0.063810 -0.094001 -0.149974 0.007996 -0.081994 0.171982 -0.023946 -0.139985 -0.063994 0.190023 0.064013 0.248012 -0.090027 
0.006016 0.143990 -0.238285 0.000063 0.126049 0.247992 -0.000011 -0.092005 -0.041994 -0.241969 -0.167335 0.257996 -0.048286 0.045964 0.173992 -0.050036 0.140004 -0.070013 -0.116000 0.188008 0.054025 -0.234049 0.001921 0.104007 -0.024045 -0.000010 -0.171993 0.106007 -0.011805 0.052049 0.209984 -0.072041 
-0.199965 0.047058 -0.048135 0.044006 0.183815 -0.054936 -0.264058 0.173731 0.004003 -0.181938 -0.114080 0.315895 0.034961 0.187114 0.021840 -0.102109 -0.011772 -0.336585 0.101131 -0.129443 -0.077865 -0.249680 -0.021919 -0.131907 -0.045703 0.003723 -0.174163 -0.141960 0.203939 0.133354 0.291868 0.011529 
-0.210747 0.165091 0.014433 0.273176 0.126593 -0.161690 -0.038186 -0.007053 0.052238 -0.108240 0.198354 0.343637 0.118930 0.208824 0.048388 -0.166420 0.014321 -0.334468 0.021476 -0.185615 -0.081645 -0.065486 -0.123431 0.057954 -0.100720 0.234575 -0.203212 -0.237310 0.012083 0.303460 0.085562 0.197908 
0.045199 0.094464 0.045933 0.185154 0.211602 -0.162959 -0.128636 0.020426 0.181594 -0.206865 -0.064990 0.215254 0.130517 -0.011246 0.161076 -0.154190 -0.046397 -0.219414 0.168550 -0.145785 -0.089286 -0.002061 0.060823 -0.145805 -0.145023 0.198590 -0.116919 -0.157070 0.138984 0.182971 0.004401 0.113576 
0.111071 0.110999 0.080872 -0.069096 -0.027511 -0.127771 0.108910 -0.095008 0.108999 0.087967 -0.080715 -0.067018 0.109874 -0.063978 0.108989 0.091400 0.108942 0.082952 0.116845 0.080514 0.083145 0.091062 0.069486 0.091059 0.083121 -0.091616 0.111143 -0.106860 -0.091053 0.117446 -0.095079 -0.088893 
0.100000 0.100000 0.100000 -0.100000 0.100000 0.100000 0.100000 0.100000 0.100000 0.064362 0.100000 0.089670 -0.100000 0.100000 -0.018904 -0.100000 0.100000 0.100000 -0.040607 -0.100000 -0.018982 0.100000 -0.100000 -0.100000 0.100000 -0.100000 -0.100000 0.100000 0.100000 0.100000 -0.100000 0.100000 
0.100000 -0.100000 -0.100000 0.100000 -0.100000 0.100000 -0.100000 0.100000 0.100000 0.100000 0.100000 -0.100000 0.100000 -0.100000 -0.077857 -0.082841 -0.100000 -0.100000 -0.100000 -0.100000 -0.100000 -0.100000 -0.100000 0.100000 -0.100000 -0.100000 -0.100000 -0.100000 -0.100000 0.100000 0.100000 -0.100000 
-0.100000 -0.100000 -0.100000 0.100000 0.100000 0.100000 0.100000 -0.100000 -0.100000 -0.100000 -0.100000 0.100000 -0.032461 0.100000 0.100000 -0.100000 -0.100000 0.100000 -0.100000 -0.055729 0.100000 0.100000 -0.100000 -0.100000 0.100000 -0.100000 0.100000 0.100000 -0.048314 -0.035784 -0.100000 0.100000 
0.088789 0.097521 -0.096117 -0.105500 -0.089988 0.115303 -0.096541 0.093329 -0.098987 -0.096758 0.104105 0.098419 0.102529 0.089889 0.089835 0.101508 -0.096482 -0.096215 -0.075093 -0.095612 0.111676 0.088379 -0.100878 -0.062985 -0.097470 -0.099949 0.106199 -0.105973 0.092858 0.097575 -0.084664 0.098229 
0.049901 -0.137723 0.167081 0.079077 0.084537 -0.061130 -0.069055 0.071717 -0.090694 -0.071290 0.142404 0.054352 -0.069746 0.051972 -0.113866 -0.142830 -0.059040 -0.050256 -0.127102 -0.129109 -0.047376 0.108447 0.068615 0.029768 -0.033344 0.043890 -0.067332 0.087931 -0.130436 -0.131256 0.153389 -0.122805 
-0.090435 0.018651 0.067075 -0.198440 -0.168333 0.076840 0.230295 -0.129483 -0.068971 0.213014 0.285582 -0.027476 0.212302 -0.081664 -0.046780 -0.200878 0.083691 0.287012 0.014463 -0.142979 0.155096 -0.048208 -0.126588 0.269105 -0.074543 -0.267895 -0.015730 0.008688 -0.273538 0.005073 0.294290 -0.212311 
-0.228486 -0.190882 0.074833 -0.267357 0.057581 0.029073 0.186891 -0.154604 -0.091700 0.191384 0.234532 -0.252265 0.200416 -0.043060 -0.006654 -0.004954 0.226220 0.124461 0.051474 -0.095469 0.260794 0.105427 -0.147871 0.230765 -0.166710 -0.244187 0.130080 -0.079532 0.013235 -0.207574 0.071316 -0.257349 
0.071629 -0.121998 0.239482 -0.254392 0.169673 0.106473 -0.024065 -0.063646 -0.106972 0.131912 -0.017879 -0.035966 -0.051710 -0.003998 0.020190 -0.177944 -0.046026 0.273999 -0.099926 0.131956 0.257870 0.052086 -0.122164 0.151909 -0.054026 0.061837 0.001744 -0.260094 0.109719 -0.014008 -0.060015 -0.193664 
0.123999 0.040049 0.159816 -0.193996 0.204000 -0.020028 0.123387 -0.049927 0.095994 0.111574 0.163991 0.033982 -0.076019 -0.202025 -0.014105 -0.119995 -0.075993 -0.028006 0.080042 -0.039970 0.022035 0.010013 0.067895 0.164004 0.181991 -0.121998 0.239982 -0.125682 -0.102011 -0.148041 -0.085882 -0.111603 
0.154018 -0.161699 -0.046003 -0.124008 0.111105 -0.060003 0.134011 -0.053998 -0.075994 -0.141994 -0.039563 0.072002 0.086132 0.041977 -0.160008 -0.123985 -0.090014 0.163993 -0.123971 0.221997 0.197998 -0.203993 0.065995 -0.017997 0.176013 0.065997 0.253993 -0.087986 0.146005 -0.135812 -0.064030 -0.138000 
-0.004043 -0.116017 0.141986 -0.120001 0.101566 0.112042 0.153994 -0.088064 -0.040007 0.081997 0.194000 -0.118005 -0.122005 -0.160003 -0.173985 0.074009 0.119996 -0.036008 0.060014 -0.055996 0.180024 -0.193993 -0.138006 0.188000 -0.027998 -0.155979 0.253997 -0.260135 -0.006008 0.059999 0.127999 -0.136005 
-0.009988 -0.117997 -0.020000 -0.122003 0.138032 -0.117991 -0.010006 -0.180006 0.122004 -0.085999 0.103518 0.065996 0.096402 -0.143997 -0.156004 0.077998 -0.084016 -0.027991 0.073999 -0.094100 0.209999 -0.134002 -0.023689 0.158077 0.170023 0.095997 0.052016 -0.035996 0.021995 0.028236 -0.111994 -0.092003 
0.028007 0.082017 -0.045976 0.097997 -0.088003 0.030010 0.235999 -0.053994 0.123981 -0.021996 0.129999 0.042050 0.139996 0.066000 -0.178002 -0.153997 -0.058001 0.162059 -0.144015 0.011705 0.039999 -0.163999 -0.195999 -0.045999 -0.044004 -0.041999 0.030001 -0.167991 0.276000 -0.204000 -0.095998 -0.062000 
0.220141 -0.101989 0.146004 -0.072002 0.096026 -0.167999 0.010000 -0.263989 0.057993 -0.027986 0.123997 0.052001 -0.052026 -0.116000 0.042006 0.072012 0.067782 0.017202 -0.149998 0.033980 0.244001 -0.147998 -0.213996 -0.041999 0.143991 0.068124 0.043997 -0.003258 0.071995 -0.157250 -0.119993 -0.078002 
0.046001 -0.103999 -0.020035 -0.024042 0.115756 0.004006 0.000001 -0.104000 -0.175998 0.185998 0.087999 0.070000 -0.089998 0.105998 -0.126000 -0.077997 0.124002 -0.056019 0.080003 -0.213997 0.043991 0.050002 -0.018000 0.168004 0.116002 0.175999 0.258000 0.003999 0.297999 -0.159912 -0.010127 -0.044000 
0.272001 -0.101997 0.181247 -0.016002 -0.095999 -0.224000 0.172001 -0.281996 0.019516 -0.040002 -0.125997 -0.099998 -0.109985 0.130935 0.107996 -0.052005 -0.068003 -0.085999 0.062001 -0.214006 0.248003 0.022001 -0.135998 0.180003 0.078002 -0.037985 0.298005 0.008039 0.109988 -0.172010 -0.190007 0.160004 
0.079996 -0.127997 0.007996 -0.052001 -0.056006 -0.002002 0.149999 -0.249999 -0.123999 -0.090003 0.074001 0.161962 -0.192002 0.162008 0.117999 -0.038001 -0.077992 0.068002 -0.103998 -0.048000 0.061999 0.013998 -0.041994 0.104818 -0.100017 0.146003 0.114000 0.021997 0.108001 -0.193998 -0.003992 0.134001 
0.302000 -0.136008 -0.026001 -0.064007 -0.028011 -0.181999 -0.079994 -0.261998 -0.102000 -0.119992 0.079996 -0.015997 -0.238007 0.002003 -0.055990 0.144000 -0.076001 -0.106004 0.166002 -0.209998 0.057999 -0.188001 -0.239996 0.081998 0.110005 -0.102000 0.302003 0.030000 0.125997 0.021259 0.018019 0.149999 
0.095998 0.058038 -0.021441 0.128003 0.238002 0.091998 0.065998 -0.056002 0.087993 0.022007 0.068005 0.047995 -0.173258 0.025995 -0.022001 0.152001 -0.102002 0.069962 -0.035999 -0.176011 0.013998 -0.186001 -0.019999 0.279999 -0.059998 -0.105993 0.319998 0.014020 0.335996 0.034002 -0.003997 0.119998 
0.087718 -0.112004 0.151989 0.141999 0.063999 0.153999 0.039066 -0.018003 0.055174 0.008001 -0.113998 0.265992 -0.269994 0.121951 0.212001 -0.070001 0.115999 -0.185998 0.138001 0.112000 0.237996 -0.009997 -0.055229 0.057999 -0.046005 -0.073999 0.241996 0.240011 0.129997 0.093999 -0.173991 0.145998 
0.205999 -0.083997 0.063996 0.167989 0.276014 0.000001 -0.150000 -0.199972 -0.053970 0.013999 0.069999 0.257996 -0.275922 0.007998 -0.004010 -0.008024 0.082002 -0.232000 0.082000 -0.055995 0.212001 -0.219994 0.059999 0.223999 -0.085999 0.153997 0.172001 0.230000 0.295997 -0.058000 0.109998 0.143994 
0.130021 0.104006 0.014017 0.009998 0.079998 0.027995 -0.129998 -0.148179 0.099998 -0.179998 0.071996 0.178002 -0.263997 -0.203999 0.138463 -0.020005 -0.075999 -0.049999 0.054022 -0.008006 0.225999 -0.253997 0.062003 0.082006 -0.091996 -0.000001 -0.120147 0.189095 0.294002 -0.031978 -0.080006 0.146000 
-0.082008 -0.044000 -0.005998 0.196002 0.260018 0.168214 0.049998 0.066004 0.094001 -0.199989 0.042005 0.199996 -0.252003 0.000015 -0.029996 0.144000 0.109999 -0.064000 -0.123988 0.199996 0.041985 -0.237998 0.093996 0.064004 -0.097997 -0.041980 -0.110192 0.043997 0.089999 -0.034006 0.086004 0.171999 
0.071977 -0.031998 -0.002005 0.225997 0.299974 0.225945 -0.223992 0.127993 0.124004 -0.023999 0.101989 0.200004 -0.274007 0.010000 0.227997 -0.080005 0.157997 -0.285994 -0.066011 -0.039976 -0.086005 -0.022019 0.114135 -0.138008 -0.133889 -0.031996 -0.255986 0.204005 0.293987 0.234228 -0.091996 0.186024 
0.089962 0.231861 -0.030001 0.256065 0.083970 -0.038018 -0.240018 -0.026049 0.143966 -0.252006 -0.048033 0.069990 -0.273990 -0.100006 0.253986 -0.129924 0.139996 -0.074104 -0.016066 0.155990 -0.103855 -0.023036 -0.088047 -0.019420 -0.098003 -0.084175 -0.038003 -0.066000 0.010003 0.111593 0.041465 0.018010 
-0.104064 0.271708 -0.061931 0.339960 0.303883 -0.129771 -0.042210 0.051908 0.185984 -0.274881 0.263987 0.345971 -0.105200 0.152030 0.245996 -0.171838 0.009994 -0.292011 0.237808 0.084075 -0.072115 -0.154265 -0.190251 0.094006 0.085967 0.081995 -0.200037 0.123732 -0.034047 0.123719 0.182024 0.088293 
-0.176767 0.180671 0.051855 0.142480 0.240862 -0.024655 -0.126824 0.059843 0.188373 -0.154534 0.292752 0.185981 -0.080757 -0.002046 0.240685 -0.185700 0.214649 -0.046640 0.069077 0.012927 -0.070375 0.018310 -0.195578 -0.135210 0.062121 0.151328 0.028489 -0.170811 0.138754 0.154695 0.020598 0.265673 
0.089507 0.103417 -0.105803 -0.002501 -0.051570 -0.186191 0.130670 -0.051199 0.136872 0.054686 0.142034 0.004659 -0.055881 -0.063627 -0.051353 -0.129482 0.146775 -0.170017 0.162187 0.030103 0.030381 0.052155 -0.138799 -0.123263 -0.152803 0.132764 -0.118530 -0.136036 0.142347 0.098423 -0.065817 0.121952 
-0.100000 -0.100000 0.100000 -0.100000 0.100000 0.100000 0.100000 -0.100000 -0.100000 0.100000 -0.100000 -0.100000 -0.100000 -0.100000 -0.100000 0.100000 -0.100000 -0.100000 0.100000 -0.100000 0.100000 0.100000 0.100000 0.100000 0.100000 0.100000 0.100000 -0.100000 -0.100000 -0.100000 0.100000 0.001770 
0.100000 0.100000 -0.100000 -0.100000 -0.100000 0.100000 -0.100000 -0.100000 0.100000 -0.100000 0.100000 0.012504 0.100000 0.099221 -0.100000 0.100000 0.100000 -0.100000 0.100000 0.100000 0.100000 -0.100000 -0.100000 -0.061748 0.100000 0.065846 -0.076631 -0.100000 -0.100000 0.100000 0.100000 0.100000 
-0.100104 -0.100084 0.100085 0.100022 -0.100059 0.100016 -0.099833 0.100000 -0.099838 0.100148 -0.099875 -0.100052 -0.099877 -0.100112 0.065016 -0.100060 0.100186 -0.099947 -0.100105 0.099999 -0.099922 -0.099968 -0.016757 -0.099851 0.099848 0.099849 -0.099928 -0.099989 -0.100027 -0.100001 0.100153 0.099992 
0.089480 -0.107194 -0.091184 -0.128306 -0.082058 -0.046958 -0.038291 0.079023 0.078168 -0.111619 -0.100627 0.069550 -0.102559 0.104268 -0.118752 0.104457 0.093498 -0.067362 -0.087914 -0.108406 0.125005 -0.111073 -0.114978 0.095224 -0.088995 0.110963 -0.082511 -0.128082 -0.106646 -0.116196 -0.102320 -0.130900 
-0.014863 0.022615 0.025579 -0.184114 0.047536 0.211728 -0.001814 -0.159346 -0.056048 0.183600 0.220234 -0.007977 0.169464 -0.017040 -0.181190 0.017883 0.019081 0.048472 0.038552 0.037413 0.071410 -0.087707 0.036753 0.204237 0.018440 -0.203507 0.196379 0.031509 -0.156893 -0.187879 -0.002231 -0.192841 
-0.176105 -0.136411 0.074325 -0.225950 0.101547 0.062221 0.015701 0.101524 0.054808 -0.004398 0.097137 -0.244548 -0.037731 -0.067432 -0.177984 -0.180437 0.243296 0.346414 -0.122065 0.098434 0.294965 -0.036145 -0.148049 0.050076 -0.019091 -0.254868 0.188812 -0.038583 -0.211092 0.028107 0.223030 -0.009101 
0.028242 0.092035 0.233955 -0.287982 0.118021 0.012356 0.006017 -0.067527 0.056063 -0.029976 0.232288 -0.259971 -0.046040 -0.229916 0.002012 -0.185899 0.215946 0.353916 0.103867 -0.084761 0.079985 -0.080037 0.088604 0.245978 -0.136065 -0.025613 0.167985 -0.086461 -0.004400 -0.195395 -0.030219 -0.248985 
-0.073987 -0.058253 0.122432 -0.194017 0.196027 0.200008 0.051091 0.023998 -0.173997 -0.045494 0.069413 -0.209996 0.082028 -0.173929 -0.177851 0.030013 -0.004020 0.231985 -0.030007 -0.115956 0.210001 -0.138013 -0.119986 -0.014004 -0.099940 0.046012 0.138014 -0.241979 0.086008 -0.201993 0.112003 -0.154015 
-0.004003 0.072015 -0.058007 -0.049746 0.235982 0.023975 0.203987 0.000003 0.036004 -0.086069 0.061998 0.027999 0.118000 -0.157991 -0.028081 -0.080026 0.094000 0.181996 0.164000 -0.064002 0.003993 0.061997 0.052000 0.166000 0.142004 0.053999 0.181992 -0.091997 -0.038328 0.022010 0.056006 0.022007 
-0.003994 0.102013 -0.078004 -0.144044 0.213983 0.146003 -0.021997 -0.044002 -0.139977 0.093993 0.281999 -0.153995 0.110016 0.092008 0.018002 -0.097892 0.117997 0.167954 0.152000 -0.045972 0.164004 0.073995 -0.097745 0.201993 0.122004 -0.170002 0.179995 -0.099992 -0.018002 -0.160000 0.090000 0.030006 
-0.023999 -0.089999 -0.027941 -0.101993 -0.035999 0.120006 0.164000 0.018000 0.149983 0.006224 0.111996 0.056000 0.101996 -0.110005 -0.085178 -0.120003 0.145996 -0.027997 0.003844 -0.087893 0.181998 0.057998 0.074004 -0.004021 -0.079997 0.064001 -0.002001 -0.066004 0.191997 0.030002 0.115998 -0.095999 
-0.015997 0.099992 0.177998 0.084006 0.133999 -0.144002 -0.019988 0.189995 -0.052003 0.139986 0.176825 -0.130002 -0.033986 0.158003 -0.108001 -0.122002 -0.012003 0.203998 0.148010 0.038005 -0.018002 0.099998 0.085999 0.166000 -0.080002 -0.144002 0.188003 -0.017998 0.220000 -0.171989 -0.114000 0.104002 
0.006000 -0.102003 -0.047998 -0.095999 0.037760 0.029992 0.225999 -0.083194 -0.020003 -0.041973 0.036002 0.042003 0.023998 -0.016007 -0.119998 0.070001 -0.022004 -0.037998 0.136003 -0.187998 0.174000 0.073995 -0.158001 -0.081995 0.088004 -0.102003 0.219999 0.016000 0.060000 0.019976 0.088001 0.085999 
0.194001 -0.139995 0.176001 0.120003 -0.107982 0.000004 0.017999 0.068000 -0.025998 0.011997 0.003999 0.092002 0.016000 0.152001 0.100000 0.063999 0.157997 0.168008 -0.071988 -0.172154 0.202014 -0.131997 0.036002 -0.094001 0.114002 0.171998 -0.003999 0.113993 0.247517 -0.170002 -0.136001 0.116005 
0.203995 0.083997 0.000001 0.167991 -0.102010 -0.022002 0.213999 -0.169997 0.180002 0.001997 0.164000 -0.070001 0.188000 0.187986 -0.060018 -0.102001 -0.062000 0.185999 -0.083995 0.036008 0.189999 -0.107981 0.024002 -0.111999 0.098002 -0.037986 0.208002 -0.030001 0.267996 0.030002 0.042002 -0.043998 
0.020001 -0.143999 0.009995 0.102001 -0.158000 -0.255989 -0.003718 0.001999 0.026000 0.206000 0.127999 -0.051997 0.079449 0.218100 -0.040001 -0.079992 0.162000 0.014386 -0.063997 -0.133998 0.167999 0.094000 0.015997 -0.106000 0.122000 0.196003 0.239997 0.172000 0.051992 0.058001 0.044000 -0.041996 
0.035999 -0.158000 0.232000 -0.031816 -0.178003 -0.089999 0.161999 -0.003990 0.220003 0.185395 -0.083999 -0.019999 0.226003 0.087657 0.175994 -0.070000 -0.087999 -0.025718 -0.055985 0.070009 -0.038502 0.110000 -0.158007 -0.056003 0.154000 0.153999 0.097995 0.137999 0.258000 0.115999 -0.163999 0.164000 
0.095907 -0.137999 0.042000 -0.094002 -0.177994 -0.079996 -0.079975 -0.188003 -0.006000 0.190004 0.132000 0.011997 -0.036020 0.093979 -0.018000 -0.064001 0.113999 0.142001 0.168000 -0.124000 0.130828 0.133998 -0.176004 0.160003 -0.057998 -0.063218 0.100000 -0.056002 0.038000 -0.098000 0.038000 -0.043893 
0.238000 0.098008 0.224000 -0.070002 0.053998 0.002001 0.065967 0.002018 0.170006 0.147995 0.122000 0.019996 0.127998 0.090815 0.190010 -0.089998 -0.073543 0.143983 -0.034003 0.058000 -0.043999 0.135999 0.034003 0.162000 -0.074001 0.069792 0.239998 -0.057999 0.061995 -0.111998 0.026001 -0.036003 
0.013999 -0.059998 0.194015 0.128000 0.062000 0.014001 0.085607 0.055999 0.130001 -0.094006 -0.072002 0.008002 -0.112000 0.181999 0.203996 -0.118000 -0.104121 0.112000 0.164005 0.096000 0.168008 0.108004 -0.139999 -0.030001 -0.099961 -0.081999 0.211992 -0.016000 0.268011 -0.098000 -0.159999 -0.053999 
-0.027996 -0.004001 -0.023994 -0.041984 -0.046000 -0.095995 -0.100001 -0.099995 0.087999 0.078002 0.147999 -0.012000 -0.165975 0.056000 0.224003 -0.092004 0.127990 -0.011845 -0.018320 -0.080001 0.211997 -0.139999 0.093999 -0.062001 0.083999 -0.106000 0.073999 -0.001998 0.170352 -0.109999 0.053999 0.154004 
0.154000 -0.000002 0.115988 0.002004 0.200001 -0.016001 -0.088409 -0.048002 -0.074018 0.079990 -0.055993 -0.040582 -0.188000 0.004000 -0.015993 -0.084000 0.158058 0.034038 -0.094014 -0.067973 0.216018 -0.077851 -0.147998 -0.064001 -0.158000 0.007157 0.033998 0.211992 0.044000 0.135998 -0.134001 0.166007 
-0.011351 0.195891 -0.129994 0.209993 0.023999 0.152008 0.101995 0.154000 -0.066002 0.038000 -0.041990 -0.022000 0.002001 -0.008010 0.165685 0.090037 -0.030000 -0.253991 0.122000 0.037432 0.182000 0.031999 0.042000 0.101998 -0.181987 0.106000 0.031999 -0.007996 0.153630 -0.036005 -0.007043 0.168036 
-0.010521 0.180034 0.041999 0.018003 0.256007 0.082014 0.036001 -0.032000 0.118001 -0.050902 0.179982 0.023997 -0.222003 0.012799 0.018003 0.039996 0.006004 -0.073998 0.169996 0.086009 0.089955 -0.025998 0.047986 0.111998 0.012000 -0.107999 -0.244004 -0.006015 0.099960 0.054188 -0.148005 0.007993 
-0.049934 0.239994 0.029972 0.073991 0.079996 0.034021 -0.220000 0.243993 -0.067997 -0.125989 0.194074 0.075978 -0.253981 -0.066014 0.058000 -0.212044 -0.008010 -0.154320 0.075962 0.097994 -0.003995 -0.183986 -0.160123 0.125993 -0.183962 -0.127967 -0.245363 0.015974 0.200346 0.029991 -0.116004 0.030001 
-0.049908 0.304087 -0.025949 0.372236 0.128025 -0.215965 -0.023998 0.082042 0.233943 -0.127998 0.316191 0.295659 -0.193964 0.149715 0.295981 -0.208016 0.005984 -0.343982 0.317971 0.028107 -0.322048 -0.165092 -0.036008 -0.056009 -0.181981 -0.126009 -0.019840 -0.034068 -0.019986 0.136288 -0.070018 0.152026 
0.088175 0.092037 -0.197667 0.189913 0.053963 -0.064322 -0.095901 0.307920 0.034015 -0.309822 0.380169 0.223974 -0.121986 0.033910 0.262039 -0.003332 0.001994 -0.323973 0.333670 -0.025784 -0.123643 -0.167911 -0.061854 -0.097548 -0.029858 -0.100751 -0.183870 -0.079816 0.205935 0.250796 0.179886 0.158156 
-0.137257 0.093878 -0.094807 0.283202 0.017259 -0.075100 0.151255 0.215051 -0.007255 -0.023924 0.017996 0.102537 -0.016396 0.218548 0.020494 -0.004485 0.168971 -0.037067 0.141022 -0.030306 -0.022536 0.001513 -0.012682 0.017881 -0.013931 -0.024473 -0.147460 -0.157495 0.000576 -0.053089 -0.001709 0.187375 
-0.109957 -0.115494 0.108321 -0.077565 0.114003 0.067911 -0.080241 0.114009 0.114011 -0.117722 0.130262 0.133760 0.115889 -0.064071 -0.080004 -0.119996 -0.080025 0.083952 0.120014 0.079945 0.085304 0.086023 0.070022 0.097184 0.079994 -0.087880 -0.117709 -0.098035 -0.079996 0.091947 0.111988 0.104286 
0.100000 0.100000 0.100000 -0.100000 -0.100000 0.093678 -0.100000 0.100000 0.100000 -0.100000 -0.100000 -0.100000 -0.100000 0.100000 -0.100000 0.100000 -0.100000 0.100000 -0.100000 -0.100000 0.100000 0.100000 0.100000 0.028899 -0.100000 -0.100000 0.100000 0.100000 -0.100000 0.100000 0.100000 0.100000 
0.069953 -0.041208 -0.116885 -0.109824 0.122210 0.139306 -0.071263 -0.074734 -0.116805 0.122408 -0.060362 -0.136375 0.137387 0.115859 -0.139667 0.124830 -0.060243 0.137983 0.116030 -0.121570 0.034156 -0.084219 0.116095 0.121415 -0.017849 0.066975 -0.007669 -0.127600 -0.109839 0.086017 0.091282 0.063719 
-0.172907 -0.058822 -0.140398 -0.149467 0.134957 0.174465 0.157634 -0.058786 -0.168717 0.121622 -0.003855 -0.194741 0.192740 -0.054807 -0.001790 0.149205 0.192645 0.219795 -0.037601 0.086450 -0.120608 0.159329 0.136772 -0.096802 0.024198 0.029539 0.065147 -0.172674 0.039137 -0.080321 0.055732 -0.187472 
-0.062867 -0.154466 0.127311 -0.059833 -0.106677 0.280919 0.302405 0.073249 -0.136853 0.060763 0.298995 -0.129062 0.308655 -0.016354 -0.277876 0.074589 0.109110 0.173845 0.073936 -0.200373 0.255553 -0.053159 0.059592 0.226564 -0.070278 -0.083342 -0.019548 -0.053637 -0.164217 -0.019411 0.102480 -0.281322 
-0.163917 0.086093 -0.004898 -0.084758 -0.051934 0.082142 0.242107 0.137852 -0.215874 -0.006042 0.289992 -0.147915 0.171944 -0.285826 -0.263950 -0.136530 0.204011 0.193915 -0.020516 0.121384 0.113847 -0.076210 0.050176 0.025836 -0.165919 -0.027781 -0.023744 -0.299564 -0.162148 -0.001247 -0.004135 -0.266928 
-0.071991 0.111951 0.188004 -0.277974 0.037211 -0.018057 0.199996 0.156025 -0.025997 0.168018 0.245972 -0.249998 -0.026022 0.019872 -0.237965 0.006674 0.177978 0.144006 0.133979 -0.127200 0.283994 -0.074007 0.113979 0.214001 0.127998 0.010007 0.171993 -0.099401 -0.109973 -0.223981 0.114062 -0.236013 
-0.038004 -0.031988 -0.098015 0.007731 -0.045986 -0.003996 0.175996 0.044036 -0.211998 0.125994 0.263998 -0.173972 0.085778 0.131993 -0.178013 -0.040004 0.146005 0.057985 0.015921 0.054028 0.206042 -0.103996 -0.139698 0.181969 -0.039012 0.023999 0.095611 -0.024013 0.173982 0.005980 0.059968 0.048008 
0.163990 0.162000 -0.119990 0.046004 -0.025997 0.007965 0.026001 0.085998 -0.000766 -0.067984 0.277996 -0.189097 -0.070000 0.135997 0.010029 -0.047987 -0.081999 0.233998 -0.004003 -0.127999 0.189996 0.104002 -0.144001 -0.019989 0.127941 -0.186000 0.165997 -0.066005 -0.098000 0.032003 -0.163973 0.024013 
0.195998 -0.056001 -0.097996 0.080026 -0.024002 0.095641 0.002004 0.105996 -0.106002 0.151998 0.303973 -0.150001 -0.080000 -0.016002 0.057999 -0.053986 0.182026 0.186017 0.224003 0.027999 0.007967 0.120001 0.083996 0.228016 0.128002 -0.007998 -0.024002 -0.266004 -0.084023 -0.157997 -0.140309 -0.136000 
0.212003 0.141994 -0.069997 -0.088005 0.174001 0.076004 0.010000 0.103997 -0.050001 -0.075997 0.300005 -0.134000 0.177997 0.179976 0.082003 0.116002 0.012007 0.192001 0.048002 -0.146007 -0.074001 -0.066000 -0.109999 0.186003 0.125999 -0.173999 0.136001 -0.044001 0.116011 -0.177980 0.070000 -0.106001 
0.192006 0.128001 0.136000 0.112000 -0.064004 -0.069503 0.039855 0.231998 -0.065999 0.145995 0.274000 0.058000 0.135201 0.073999 -0.095990 0.095999 -0.010000 0.219999 0.265944 -0.168024 -0.109995 -0.067992 0.105999 -0.020003 -0.080002 0.091979 0.159990 -0.004002 0.125684 -0.145989 0.084000 0.056668 
0.077820 0.116001 0.029095 0.117999 0.133999 0.030002 0.217997 -0.010000 0.159995 0.214000 0.034000 0.098001 0.243997 0.273999 0.178000 -0.115999 -0.039991 0.175999 0.223995 0.055997 -0.099999 0.158000 0.079999 -0.087912 0.114004 -0.072000 0.144004 0.000003 0.011998 -0.150000 -0.143998 -0.145998 
-0.012001 0.124000 -0.086000 -0.074003 0.099999 -0.197986 0.221987 0.165965 -0.012000 0.039995 0.150000 -0.084001 0.050001 0.256000 0.152000 0.110003 0.187995 -0.009995 0.172000 0.059991 0.143982 0.129999 0.076466 -0.142019 -0.107988 -0.030000 -0.050001 -0.094028 0.217992 0.052003 -0.134002 0.118025 
0.158000 -0.107988 -0.012003 -0.098000 -0.173998 -0.006001 -0.012000 -0.134001 0.023999 0.256000 -0.047452 -0.068002 0.275995 0.164138 -0.019990 0.126001 -0.016000 0.013999 0.134002 -0.114001 -0.097999 0.172000 0.068027 -0.148002 -0.083922 0.193997 -0.026007 0.031421 0.021996 -0.098000 0.085999 0.048857 
0.021714 0.051997 0.238000 -0.127997 -0.039997 -0.271999 0.173689 0.014001 0.246008 0.282000 -0.144003 -0.075999 0.301999 0.116001 -0.010001 0.124001 0.149999 0.217999 0.120867 0.112039 0.087986 0.170001 -0.104000 0.040000 -0.050000 0.017998 0.043999 0.124001 0.219994 -0.109999 0.108002 -0.076001 
0.188001 0.046002 0.242002 -0.203989 -0.067999 -0.083996 0.145992 -0.020000 0.271999 0.073999 0.054000 0.126002 0.103999 0.144000 0.003999 0.137999 0.092000 0.247999 -0.091953 0.120001 -0.145998 0.026000 -0.062000 -0.150000 -0.032000 0.015999 0.274001 0.090001 0.169999 -0.097133 0.105999 0.080004 
0.182000 -0.093999 0.234003 0.024010 -0.231975 -0.233997 -0.042001 -0.147993 0.235997 0.261992 -0.116005 -0.035997 0.090000 0.145999 0.198001 0.107734 0.104003 0.064002 -0.047991 -0.058002 -0.125999 0.221997 -0.034000 -0.148000 0.144000 0.208003 0.221999 0.076010 0.174008 0.086000 0.014740 0.070000 
-0.017996 0.135999 0.240393 -0.144000 -0.116869 -0.000001 0.164005 -0.081999 -0.020000 0.240000 0.013064 0.154000 0.244000 0.055997 0.232021 -0.144000 -0.052002 0.256001 0.174009 0.096000 -0.084018 0.211996 0.138002 0.060000 0.129998 -0.043999 -0.040007 -0.094005 0.001997 0.094002 -0.129999 -0.094000 
0.001999 0.168010 0.218001 -0.083788 -0.036002 0.001999 0.062697 0.170004 0.118000 0.133299 -0.022004 -0.004077 -0.047999 0.206001 0.027999 0.028001 0.181999 0.222000 0.015997 -0.115997 -0.002008 0.039987 0.116010 -0.105998 0.070000 0.121988 0.084001 0.161989 0.205996 -0.066001 -0.163999 0.171999 
0.164000 0.036003 0.021997 -0.034006 0.041369 0.023999 0.179969 -0.014001 0.082000 -0.034000 0.200000 0.099997 0.106004 0.153999 0.015999 -0.173998 0.200000 0.201996 -0.008001 -0.152000 0.027994 -0.044002 -0.102013 0.128004 -0.170002 0.062002 0.042000 0.009994 0.223998 -0.014702 0.026014 0.158000 
-0.051998 0.033980 0.170000 0.208001 -0.058002 -0.124010 -0.049996 0.211996 0.084002 0.137999 -0.005996 0.103999 0.078000 0.084000 0.204000 0.040000 0.241998 -0.072005 0.144001 -0.146001 -0.008000 0.098005 -0.143999 -0.038000 -0.213999 0.079999 0.035998 0.002001 0.233995 0.090004 -0.155999 -0.054000 
0.190000 0.031670 0.114001 0.018000 0.203970 0.073333 -0.049997 0.214000 -0.098001 -0.126001 0.085103 -0.024001 -0.119996 0.038409 -0.007998 -0.163998 0.210009 -0.095061 0.143551 -0.159965 0.130000 0.066005 0.024002 -0.100003 0.002000 0.087946 0.018009 0.137998 0.008002 0.116002 0.039997 0.201991 
0.171998 -0.002004 -0.132006 0.198000 0.190020 0.055973 -0.103126 0.011999 0.078010 0.016020 -0.009996 0.005991 0.077999 -0.059998 0.246000 -0.195998 0.220000 -0.186005 0.256006 -0.181993 -0.104004 0.038002 0.018018 -0.057994 -0.177996 -0.135992 -0.206002 0.109825 0.012025 0.137999 0.016002 0.163727 
0.177998 0.045932 0.034003 0.267998 0.184007 -0.000030 0.023991 0.111481 -0.049999 -0.286406 0.021970 0.073986 0.069987 0.154006 0.271998 -0.049991 0.031998 -0.053990 0.107995 -0.184014 -0.220000 -0.174013 0.028131 -0.048000 -0.067346 -0.147991 -0.269987 -0.027995 0.218369 -0.006013 0.045452 0.217997 
-0.008019 0.105983 -0.225999 0.139995 0.044007 -0.046024 -0.149961 0.107995 0.243975 -0.123958 0.291993 0.375965 -0.187988 0.061991 0.111988 -0.047998 0.023972 -0.134007 0.365965 -0.198426 -0.131984 -0.149733 -0.248010 -0.067998 -0.072017 -0.141976 -0.204021 0.171820 0.268104 0.085990 0.053941 0.119991 
-0.073977 0.117270 -0.175863 0.199833 0.266055 -0.289908 0.108042 0.324111 0.236042 -0.318046 0.183978 0.431883 -0.134351 0.093931 0.133915 -0.261947 0.268343 -0.115955 0.179881 -0.043987 -0.349903 -0.023495 -0.252055 -0.062795 -0.271970 0.119966 -0.033983 0.100162 0.226003 0.141960 -0.054050 0.335973 
-0.166098 -0.065377 0.086932 0.135747 0.268762 -0.286612 0.144043 0.072171 0.228539 -0.068408 0.129515 0.150108 0.197431 0.005663 0.054553 -0.016396 0.232204 -0.267970 0.190116 -0.054893 -0.068671 -0.214464 -0.054120 -0.195539 -0.036892 -0.023606 -0.184710 0.065079 0.228228 -0.022969 0.000416 0.039111 
-0.103903 0.084377 -0.089384 0.140300 0.123981 0.054528 0.116958 0.130023 -0.075965 0.074163 0.145687 -0.051792 0.108419 0.143790 0.132021 -0.132010 -0.067904 0.067801 0.138100 0.063810 0.088683 0.078009 -0.143800 0.103000 0.063926 0.124073 0.090580 0.107888 0.132066 0.091475 -0.090047 0.119974 
-0.100000 0.100000 -0.100000 -0.100000 -0.100000 -0.019216 0.100000 0.100000 -0.100000 -0.100000 -0.100000 -0.100000 -0.100000 0.100000 -0.100000 -0.100000 0.100000 -0.100000 -0.100000 0.100000 -0.100000 -0.100000 0.100000 -0.042548 -0.100000 0.100000 -0.100000 0.071183 -0.100000 -0.100000 -0.100000 0.100000 
-0.153882 0.151329 0.048970 -0.120488 -0.051319 -0.026949 0.162872 0.159291 0.042874 0.148251 0.172550 0.029333 -0.031355 0.153761 0.023926 -0.041155 -0.027468 0.176236 0.156848 0.042451 -0.137609 -0.042564 0.149979 0.142499 -0.165377 -0.158830 -0.151510 0.046152 -0.131566 0.094482 0.060721 0.030177 
-0.268934 0.254863 -0.041634 0.020623 0.001066 0.283155 0.237023 0.256536 -0.194430 0.193960 0.296826 -0.282303 0.096309 0.254702 -0.110223 0.073730 0.301238 0.125369 0.089590 -0.156819 -0.212082 0.270952 0.053686 -0.055318 -0.262605 -0.082718 -0.253043 -0.255650 -0.252044 0.153655 -0.164763 -0.284418 
-0.268169 -0.058089 0.077164 -0.092959 0.173379 0.116851 0.312029 0.154979 -0.175855 0.281380 0.328057 -0.126642 0.112307 0.028284 -0.130422 -0.006287 0.143824 0.204963 -0.009573 0.021900 0.179401 -0.015910 -0.031937 0.225094 -0.062775 -0.131166 -0.031211 -0.304465 0.031010 0.035543 0.177906 -0.268124 
-0.081718 0.079956 0.007946 -0.157899 0.141965 0.035484 0.243995 -0.066041 -0.024020 0.191969 0.075960 -0.103967 0.149999 -0.017978 -0.256090 -0.062589 0.151984 0.248634 -0.076018 -0.139310 0.222739 -0.065893 -0.104593 0.029977 0.092043 -0.209695 0.071665 -0.343133 0.113998 -0.027484 0.135916 -0.249998 
0.202000 -0.067998 -0.125892 -0.194055 0.165986 0.195983 -0.005998 -0.057999 -0.049990 -0.071915 0.253994 -0.214004 -0.074001 -0.121988 -0.261984 -0.028014 0.068707 0.057848 -0.049994 -0.154052 0.273962 0.138021 0.060006 0.223985 -0.062026 -0.187998 0.152080 -0.040294 -0.111987 -0.009945 0.089995 0.026025 
0.023992 0.185994 0.072001 0.052012 0.020752 -0.024001 0.203999 0.203998 -0.028017 -0.038169 0.253991 -0.190008 0.149994 -0.016007 -0.200008 0.141946 0.120001 0.245993 0.000007 0.057994 0.215993 -0.053994 0.029997 0.193997 -0.109996 0.065998 -0.026002 -0.121992 -0.090028 -0.174329 -0.153999 0.054004 
0.022001 0.150003 0.077997 -0.111997 -0.074018 0.218011 0.027985 0.241991 -0.174001 0.177971 0.057999 -0.189985 -0.031988 -0.006004 -0.209999 0.021997 -0.045996 0.218019 0.215998 0.055982 0.164002 0.166000 0.040028 0.010002 0.118066 0.002002 -0.004000 -0.010002 0.104002 0.044001 -0.145997 0.037997 
0.223997 0.169990 -0.136007 -0.064094 0.150011 0.134010 0.011993 0.259997 0.097997 0.171999 0.091931 0.034003 -0.018002 0.243994 -0.114002 0.011998 -0.024001 0.182000 0.034001 0.023998 0.113992 -0.039999 0.061998 -0.009999 -0.099993 0.027998 -0.014013 -0.219992 -0.070241 -0.101971 -0.154001 -0.105997 
0.018015 0.154007 -0.115999 0.138000 -0.020001 -0.124001 0.225998 0.245998 -0.045999 0.153999 0.266002 0.119996 0.204002 0.087986 -0.056000 -0.030000 -0.025997 0.132153 0.055999 -0.128027 -0.139998 0.192000 0.097997 0.177995 0.137991 0.038003 -0.034013 0.012005 -0.070001 -0.080003 0.097976 0.080003 
0.017999 -0.035997 -0.096001 -0.056006 0.136000 0.067999 -0.016000 0.240000 -0.050017 0.162006 0.235999 0.122003 0.214001 0.111996 0.153964 -0.059998 0.163999 -0.030000 0.039996 -0.123997 -0.080907 0.209989 -0.087915 0.048334 0.106002 -0.018990 -0.070000 -0.140213 0.140000 0.108008 -0.131980 0.088000 
0.004002 0.199994 -0.113998 -0.069994 -0.067998 -0.145999 0.122070 0.219998 0.166645 0.221999 -0.000002 0.126001 0.036001 0.092000 -0.014000 -0.036002 0.161999 -0.025999 0.244002 -0.142000 -0.005114 -0.022000 -0.081999 0.078002 0.102002 -0.066002 0.106000 -0.149999 -0.055998 0.131999 0.050000 -0.072002 
0.008010 0.013998 -0.092628 -0.082000 -0.102001 -0.150002 -0.028001 -0.021995 0.168000 0.020016 0.130000 0.118002 0.242002 0.283998 -0.014001 0.144002 0.192002 0.185999 0.008000 0.055996 -0.183998 0.173970 0.163998 0.006592 0.100001 0.151996 -0.107996 -0.046000 -0.034001 -0.068570 0.046000 0.011644 
-0.012000 0.182001 -0.033795 -0.060004 -0.164002 -0.134002 0.001856 -0.060000 0.155500 0.052000 0.066001 -0.098000 0.256002 0.091993 0.151996 0.174000 -0.020000 0.190000 -0.036003 -0.126009 -0.175999 -0.015998 0.163999 -0.130001 -0.101999 0.123175 0.004916 -0.042002 -0.036000 0.121996 -0.117996 0.100001 
0.155989 -0.054001 0.147999 -0.165953 -0.206008 -0.152000 0.200000 0.109992 0.025987 0.293999 -0.178000 0.048006 0.112001 0.337998 0.144000 0.228002 0.188000 0.012003 0.124000 -0.098000 0.040467 0.208003 0.164052 -0.139999 0.084001 -0.002005 -0.032002 0.136001 -0.024009 0.005016 0.108005 -0.209996 
-0.075999 0.134004 0.178000 -0.218000 -0.054000 -0.138000 0.257995 0.120001 0.226000 0.106000 0.036000 -0.040531 0.335992 0.333998 -0.094004 0.008001 0.219999 0.289999 -0.056002 -0.112485 0.094002 0.022001 0.013995 0.071999 -0.133997 0.200000 -0.047988 -0.078002 0.160002 0.085991 -0.054504 -0.025997 
-0.084000 0.144001 0.190002 0.012002 -0.269996 -0.112002 0.234000 -0.036001 -0.009887 0.072000 -0.094001 -0.012111 0.101999 0.272000 0.145998 0.148000 0.030000 0.313997 -0.014000 -0.138001 0.145996 0.063924 0.192004 -0.140005 -0.165997 0.177999 0.115999 -0.081999 -0.014006 0.040001 -0.092006 -0.193981 
-0.022000 -0.043998 0.030002 0.082003 -0.049995 -0.165999 0.030001 0.015996 0.135998 0.255985 0.182001 -0.192000 0.138910 0.019997 -0.031993 -0.148010 0.188001 0.115996 0.233740 0.056002 0.170003 0.224001 0.119640 -0.118003 0.046012 -0.072003 -0.116001 -0.078530 0.190003 -0.008792 0.074000 -0.111995 
0.012001 0.190003 0.032003 0.121999 -0.269999 0.006003 0.004002 0.204000 0.054003 0.057999 0.221998 -0.168000 0.193994 -0.014000 -0.004000 -0.170022 0.196000 0.088000 0.224001 -0.140000 0.218007 0.026000 0.141998 0.011800 -0.145998 0.113999 -0.151996 0.124001 0.209999 -0.143999 0.037993 0.150001 
0.147251 0.198000 0.204000 -0.006003 -0.021667 -0.077885 0.241997 0.197998 -0.126000 0.023999 0.020000 -0.141991 0.133136 0.172001 -0.024000 -0.194006 -0.005999 0.255998 0.016001 0.006002 0.022000 0.041996 0.103998 0.145999 0.038000 0.072001 -0.105995 -0.002001 -0.000001 0.078002 -0.178001 -0.049998 
0.178000 0.033981 -0.036008 0.220538 -0.096005 -0.183997 0.190003 0.222005 0.066003 0.194004 0.033998 -0.086002 -0.100019 -0.061991 -0.007998 0.016007 0.245999 0.041935 0.011989 0.008009 -0.026005 0.176006 0.096000 0.176000 -0.218000 0.056001 -0.124001 -0.032005 0.229995 0.063999 0.005456 -0.041997 
0.193998 0.028001 -0.066000 -0.020011 -0.052003 -0.177998 -0.023981 0.016000 0.084003 0.094001 0.232002 0.159997 -0.095998 0.196031 0.110895 0.010000 0.271998 0.123994 0.226001 0.014009 0.110000 -0.024004 -0.082142 0.182005 -0.191999 -0.134002 -0.134004 0.104003 -0.007997 -0.094001 0.035998 0.140004 
0.053986 -0.005999 0.082003 0.031999 -0.044004 -0.217999 0.109998 0.045998 -0.067982 0.044003 0.049999 -0.000001 -0.096463 0.212022 0.041990 -0.233999 0.039937 -0.162000 0.183568 -0.173345 0.023963 0.086004 0.049995 0.180002 -0.017998 -0.151998 -0.161954 0.118004 0.037999 -0.020006 0.010001 0.186000 
0.225995 0.239994 0.028006 0.299983 0.049958 -0.189208 0.063928 0.079997 0.221998 -0.041993 0.244078 0.284001 -0.154005 0.096093 0.292003 -0.297998 0.269785 -0.272000 0.195694 -0.265976 -0.264019 -0.133989 -0.219977 0.190000 -0.098000 -0.113997 -0.243973 -0.026008 0.073999 0.004014 0.003934 0.039994 
0.201980 0.092012 -0.194032 0.255010 0.050007 -0.132920 -0.148037 0.353997 0.107649 -0.129990 0.321994 0.388011 -0.199994 0.081716 0.342004 -0.121996 0.290004 -0.351996 0.387988 -0.082038 -0.192003 -0.229968 -0.284005 0.155976 -0.155987 -0.075996 -0.267973 0.139970 0.107996 0.303986 -0.127997 0.115998 
-0.094063 0.045968 0.026077 0.223979 0.285987 -0.183897 -0.128108 0.369987 0.128160 -0.373965 0.164018 0.237975 -0.090364 0.120049 0.371970 -0.119980 0.160356 -0.387963 0.415909 -0.337948 -0.415964 -0.299969 -0.110028 -0.165921 -0.355924 0.175957 -0.209687 -0.156015 0.329980 0.127703 0.162245 0.123966 
-0.168676 -0.051380 0.088146 0.357563 0.266694 -0.100744 0.147994 0.282048 0.076084 -0.063591 0.032717 0.358504 -0.015443 0.083904 0.272640 -0.031147 0.256856 -0.115365 0.315700 -0.294291 -0.279170 -0.103781 -0.052507 0.005917 -0.290813 0.204479 -0.009798 -0.179160 0.168764 0.195967 0.222279 0.029818 
-0.104786 0.085406 -0.089382 -0.071800 -0.077160 -0.117494 -0.103834 0.128716 0.122826 -0.122645 0.103670 0.127387 -0.095387 -0.103923 0.006060 -0.122876 -0.005092 0.071438 0.128587 0.048283 0.040348 0.077121 0.096390 -0.104659 -0.126618 -0.077332 0.095435 0.095474 -0.077308 0.087868 -0.091278 -0.096532 
0.083500 -0.083116 -0.116844 0.092108 -0.095960 -0.083153 -0.083907 -0.083135 -0.116861 -0.088215 0.116658 0.083136 -0.083835 -0.083192 -0.116610 -0.083168 -0.083370 -0.004024 -0.083143 -0.111416 -0.071435 -0.083213 -0.083159 -0.088655 0.083462 -0.114031 0.083117 0.086217 -0.116316 0.088521 -0.116668 -0.114477 
-0.176396 0.053362 0.026391 -0.133940 0.140437 -0.004183 -0.020751 0.174046 -0.173876 -0.036893 0.194880 -0.181899 0.188331 0.171513 -0.194376 -0.018840 0.094744 0.190978 -0.026720 0.030690 0.041393 -0.029016 -0.028146 -0.037807 -0.189980 0.026421 0.025593 -0.165207 -0.149702 -0.119033 0.053430 -0.179046 
-0.091713 0.287968 -0.066820 -0.002105 0.013619 0.312112 0.096561 0.297726 -0.111949 0.044651 0.134863 -0.304447 0.119541 0.096726 -0.322129 0.290097 0.143018 0.140009 0.110458 -0.210234 -0.049415 0.292362 0.103850 0.178196 -0.305195 -0.089987 -0.298662 -0.057397 -0.275429 0.148116 -0.170227 -0.086061 
-0.070967 0.215644 -0.135565 -0.157268 0.006894 0.312464 0.144692 0.027591 -0.219612 0.311954 0.157231 -0.154660 0.328000 0.173696 -0.149290 0.252065 0.143413 0.198509 0.221247 -0.034077 -0.082266 0.047598 0.200223 0.239375 -0.080028 -0.156702 0.020234 -0.119096 -0.007339 0.038361 0.146794 -0.274382 
0.100029 -0.092239 -0.102009 -0.220959 0.149961 0.022607 0.234057 0.167963 -0.204076 0.148641 0.297921 -0.041978 0.166131 0.059943 -0.087961 0.012573 0.163983 0.337963 0.159986 -0.175932 0.210461 0.183921 -0.140055 0.249744 -0.096008 -0.217698 0.161993 -0.080971 -0.130062 -0.187818 0.124015 0.000030 
-0.030000 0.156004 0.067763 -0.169988 0.132061 -0.040002 -0.008013 0.163987 -0.256002 -0.049996 0.028008 -0.008706 -0.045995 -0.028020 -0.222006 -0.018030 0.104002 0.067987 0.108926 -0.168011 0.216005 -0.012001 0.081998 0.014001 -0.107993 0.043982 -0.055997 -0.232030 0.107984 -0.187939 0.046001 -0.173992 
-0.002006 -0.032002 0.035923 -0.145976 0.082002 0.145821 0.001999 0.189961 0.039991 0.221995 0.187310 -0.156001 0.193997 0.014000 0.016023 0.161999 -0.082001 0.019991 0.214000 -0.142003 -0.014006 0.182002 -0.168000 0.207965 -0.091992 -0.154001 0.170007 -0.193970 -0.078001 -0.168018 0.035996 0.034772 
-0.009993 0.128000 -0.136006 0.131930 0.107998 -0.048002 0.160629 0.191997 0.084000 0.061480 0.201982 0.071999 -0.016000 0.226001 -0.021167 -0.013950 0.114005 0.001999 0.006001 -0.117998 -0.090003 -0.022004 -0.085998 0.181999 0.126012 0.043998 -0.016001 0.023993 0.117994 -0.099999 -0.109996 0.080005 
-0.001999 -0.074002 0.041995 -0.054000 -0.072004 0.123983 -0.010002 0.211999 0.040287 -0.055998 0.042039 0.114003 0.170000 0.068000 0.116002 0.053019 0.102001 -0.015998 0.235999 0.078000 -0.169998 0.009996 0.097999 0.180002 -0.076000 -0.128000 -0.025997 -0.140825 0.124013 -0.079994 0.081998 0.154000 
0.035996 0.191997 0.054009 0.174019 0.094003 0.024003 -0.090000 0.030005 0.166001 0.117997 0.024004 0.188000 -0.022000 0.318003 -0.008002 0.192001 -0.113997 0.157996 0.073996 0.088003 -0.212001 0.211997 0.104003 0.130000 0.126004 -0.096007 0.106010 -0.122000 -0.088015 -0.038008 -0.114000 0.150008 
0.226000 0.010030 -0.102003 -0.055999 -0.060005 0.012003 0.047358 0.229997 0.175998 -0.061998 0.209997 0.011734 -0.007996 0.136005 0.061997 -0.056072 0.140001 0.148000 0.072000 -0.068010 -0.222000 0.191273 -0.057990 0.097996 0.122003 0.119998 -0.106017 0.079999 -0.096002 0.185999 0.074002 0.078610 
-0.011975 0.051997 0.070000 -0.002015 -0.054001 -0.070812 -0.146002 0.022000 -0.030000 -0.062004 0.081480 0.007999 0.190000 0.115997 0.053999 -0.064001 -0.067998 0.100008 0.054011 0.094000 -0.276001 -0.023999 0.150000 -0.061949 0.141998 -0.074001 0.076016 0.109995 -0.096005 0.178000 0.078000 0.010001 
-0.028002 0.089617 0.037998 -0.062001 -0.096001 -0.110001 0.020253 -0.007984 0.162000 0.138000 0.119999 -0.008001 0.204000 0.124344 0.210001 0.113825 -0.014004 -0.093999 0.053994 -0.092000 -0.038001 0.000001 0.013997 -0.127998 -0.074002 0.128001 -0.094718 0.181998 0.110000 0.190000 0.062000 0.122000 
0.009242 0.004000 0.032000 0.121999 0.096000 -0.032429 0.167999 0.125999 0.195999 0.022008 0.045999 0.096000 0.043999 0.280002 -0.054003 0.192000 0.030000 0.130038 0.003992 -0.135997 0.020006 0.170000 0.021998 -0.116001 0.019998 0.165992 -0.130169 0.221962 0.172005 -0.034001 0.096045 -0.172001 
0.038002 -0.042000 0.047997 0.077994 0.044000 0.154001 0.048000 -0.088002 -0.002002 0.066002 0.036003 -0.040000 0.281638 0.069997 -0.146002 0.252001 0.059997 -0.071999 0.140015 -0.186003 -0.062001 -0.046000 0.014000 -0.086001 -0.216008 0.178021 -0.144002 0.184010 0.039931 0.108002 -0.036003 -0.256000 
-0.156002 -0.069973 -0.070002 0.050002 0.011991 0.184004 0.275999 0.133994 0.179997 0.102000 -0.120000 -0.072000 0.235584 0.048411 -0.163998 0.251997 0.242001 0.231999 0.129998 -0.209996 0.010000 0.136000 0.191998 -0.045582 -0.022000 0.037405 -0.173998 0.168002 0.267997 0.002001 0.158000 -0.228004 
0.039999 0.197992 0.191999 -0.147999 0.000001 0.164000 0.188736 0.002002 -0.110001 0.102001 -0.046001 -0.275998 0.097999 0.129999 -0.123998 0.142004 0.254000 0.306000 -0.020000 -0.057684 0.058008 0.163998 0.020002 -0.144012 -0.204002 -0.038005 -0.179998 0.140000 0.192001 0.024000 -0.053992 -0.181999 
-0.072002 0.206000 0.052068 0.093998 -0.183994 0.140005 0.057999 0.056000 0.028001 0.281999 0.100627 -0.275995 0.004001 0.072003 0.110000 0.073998 0.212622 0.135995 0.018000 0.065992 0.252000 0.267996 0.057998 0.073999 0.005997 0.130000 0.046000 -0.099999 0.112000 -0.152000 -0.141999 0.086001 
-0.010000 0.204000 0.214001 -0.104000 -0.203998 0.043998 0.240000 0.026007 0.016002 0.240001 0.236000 -0.081287 0.160000 0.106086 -0.040002 -0.166000 0.196486 0.129995 0.143259 0.048007 0.244000 0.266000 0.185997 -0.069999 -0.162000 0.067999 -0.146000 0.129998 -0.040000 -0.148138 0.020000 -0.068004 
0.012000 0.180000 0.220000 0.147999 -0.207999 -0.204001 0.201963 0.200000 0.055990 0.023999 0.024000 -0.136000 -0.030504 0.019411 -0.068619 0.045999 0.196005 0.260024 0.233997 -0.152000 0.235982 0.022002 0.129998 -0.019838 -0.146000 -0.158041 0.093999 -0.027994 -0.057985 0.049999 -0.009999 0.139999 
-0.025998 0.005997 0.001998 -0.024001 -0.178000 -0.014001 0.092100 -0.017992 0.041996 -0.036022 0.023994 0.097999 -0.095999 0.183996 0.155998 -0.152000 0.196019 0.241999 0.231992 -0.161993 0.150002 0.243999 -0.026319 -0.018000 0.023996 0.019994 -0.054001 -0.045997 -0.072001 -0.154000 0.006003 0.107374 
0.214002 0.174048 0.163993 0.169999 0.072031 -0.006000 0.196029 -0.013995 0.108000 -0.078000 0.061746 -0.072002 -0.079997 0.247997 0.158002 -0.147999 0.008011 -0.014002 0.216039 -0.231993 0.081995 0.140211 0.060018 0.040004 -0.019995 0.050002 -0.099996 -0.094003 0.204004 0.065994 0.016006 0.091988 
0.234001 -0.009997 0.076006 0.008004 0.056006 -0.055996 0.136003 0.203999 -0.031963 -0.123996 0.079987 -0.004005 0.106004 0.294009 0.205997 0.006004 0.219615 0.052014 0.067997 -0.295986 0.012004 -0.022005 -0.136003 0.047997 -0.046000 0.025390 -0.151992 0.136002 0.049993 0.152002 -0.191996 0.180003 
0.249994 0.205999 0.040033 0.081998 -0.019466 -0.062016 0.037983 0.063987 0.209997 -0.045995 0.084326 0.089998 -0.177997 0.343980 0.099998 -0.247997 0.238011 -0.292001 0.141987 -0.131984 -0.108000 -0.158022 -0.174004 0.004027 -0.181046 0.099972 -0.167998 0.203999 0.141992 0.007981 -0.188019 0.022037 
0.205989 0.261990 -0.174586 0.370000 0.028002 -0.131998 0.027915 0.094010 0.321984 -0.365982 0.298000 0.199988 0.047987 0.351985 0.373996 -0.083983 0.316263 -0.186017 0.389967 -0.262786 -0.213985 -0.280005 -0.244014 0.137902 -0.194758 0.031088 -0.241998 -0.079994 0.401976 0.070773 -0.085977 0.166428 
-0.189895 0.021032 0.091882 0.237963 0.331979 -0.399588 -0.120393 0.286354 0.175996 -0.191928 0.371576 0.447940 0.145888 0.097815 0.203975 -0.147013 0.369929 -0.221941 0.443816 -0.402888 -0.236212 -0.114110 -0.130056 -0.199965 -0.387787 0.053993 -0.237921 -0.013405 0.389960 0.129818 0.043931 0.312510 
-0.162652 -0.088569 0.093679 0.356232 0.052294 -0.110282 -0.068003 0.055214 0.039261 -0.266668 0.232028 0.151599 -0.012491 -0.018763 0.257037 -0.025496 0.239491 -0.110366 0.126996 -0.306637 -0.083224 -0.182858 -0.033779 -0.006503 -0.082675 0.192486 0.007925 -0.104178 0.042963 0.182577 0.012509 0.018036 
0.097999 -0.102014 0.101979 -0.066021 0.110766 0.067058 0.110374 0.121968 0.110029 0.088161 0.098005 0.133960 -0.090276 -0.099975 -0.089985 -0.110006 0.106294 -0.133961 0.133926 0.068158 0.069582 0.089995 0.092011 0.089998 -0.127972 -0.089993 -0.100828 -0.108008 -0.072108 -0.102011 -0.090002 -0.096020 
0.083363 0.116927 -0.116902 -0.107535 -0.095927 -0.083097 -0.083643 0.116915 -0.116911 -0.088457 -0.083221 -0.021998 -0.083582 -0.058564 -0.116745 0.116893 0.116759 -0.083351 0.116910 0.088727 0.083520 -0.083136 -0.083102 -0.088776 -0.116696 -0.114054 -0.116923 -0.114137 -0.116528 0.088682 -0.053699 0.085299 
-0.181578 -0.023030 0.023494 0.035287 -0.062192 0.198442 0.197400 0.176895 0.024374 -0.016671 0.197943 0.009163 0.192041 0.174468 -0.196317 -0.021897 0.197915 -0.006051 0.176012 -0.187808 -0.153612 -0.026041 0.174756 0.169458 0.008876 0.021228 0.022882 -0.171747 -0.156678 0.068780 0.066581 0.015645 
-0.094172 0.167754 -0.107047 -0.180532 0.068776 0.133509 0.137659 0.119849 -0.340986 0.278832 0.128545 -0.325904 0.122258 0.312842 -0.141025 0.106279 0.349598 0.147579 0.140587 -0.262007 -0.259568 0.113710 0.119508 0.017051 -0.323583 -0.097992 -0.128693 -0.057854 -0.075588 -0.125691 -0.209797 -0.114165 
-0.065932 0.003958 -0.157609 -0.259228 0.022626 0.087813 0.337868 0.225816 -0.215938 0.117362 0.333714 -0.303665 0.121157 0.106645 -0.343209 0.205847 0.127692 0.369024 0.213805 -0.276245 0.119496 0.031528 0.183825 0.077412 -0.073740 -0.348257 0.018442 -0.114908 -0.042340 -0.185903 0.130467 -0.261892 
-0.121522 0.124006 -0.134022 -0.225975 -0.082060 0.203907 0.282016 -0.058008 0.030056 0.260317 0.071982 -0.231994 -0.000024 -0.106046 -0.243985 0.179997 -0.036018 0.109958 -0.050080 0.019767 0.120205 0.009976 -0.080035 0.059892 -0.127973 -0.050882 0.110029 -0.053855 0.031238 0.046131 0.160102 0.018866 
-0.097990 0.137665 -0.106056 -0.084799 0.045955 -0.055999 0.021999 0.143999 -0.145999 0.042006 0.036001 -0.205937 0.222008 0.197936 -0.006044 -0.006043 0.144019 0.062003 -0.051993 0.012119 0.148025 0.028003 0.099992 0.025993 0.115972 0.009994 0.129797 -0.186090 -0.174003 -0.146109 -0.064010 0.065994 
-0.068017 0.151996 -0.174009 -0.056048 0.096000 0.146002 -0.019972 -0.021064 -0.077996 -0.000001 0.222010 -0.096014 0.209996 0.187999 -0.164018 0.200275 0.124004 0.199987 -0.002003 0.072157 -0.091992 0.223995 -0.104007 -0.014003 -0.100054 0.016003 0.118004 0.026003 -0.147999 0.021334 -0.080002 0.109999 
0.132000 0.124000 -0.156006 -0.032005 -0.113997 0.109998 0.148001 0.180000 -0.040000 0.118057 0.012010 0.180002 0.166013 0.048000 0.121998 0.191989 -0.085997 -0.068000 0.017999 -0.054002 -0.014010 0.004002 0.172023 0.187974 -0.109998 -0.163999 0.108000 -0.108036 -0.160002 -0.007999 0.117985 -0.034010 
0.181991 -0.029999 -0.173997 0.165998 0.092002 -0.123999 0.099992 0.017998 -0.023999 -0.092125 0.190009 0.037999 -0.044001 0.120002 0.001993 0.007999 -0.109998 0.076002 0.032182 0.166004 -0.071996 0.214001 -0.028000 -0.056000 0.114008 -0.184000 -0.122010 -0.035606 -0.150009 0.215993 -0.089995 0.018005 
0.188000 0.033993 0.065992 0.216000 -0.101999 0.027952 0.007939 0.246179 -0.007999 0.074000 0.011996 0.052073 0.124007 0.171993 0.079996 -0.015236 0.099997 0.042009 0.302001 -0.045991 -0.097999 0.055997 -0.020002 0.106001 0.142000 0.099996 -0.175999 -0.068000 -0.142002 0.086687 0.068004 0.101322 
-0.008002 0.050004 0.072002 0.020985 0.124000 -0.152056 -0.054033 0.238001 0.008000 -0.122002 -0.022005 0.082000 0.166002 0.344000 0.296059 0.111999 -0.080000 -0.144003 0.306002 -0.018002 -0.187359 0.219997 0.052474 0.058978 0.192001 -0.077998 0.027999 0.077989 0.045928 0.087995 -0.109994 0.030003 
-0.044001 0.232002 0.084007 0.016000 0.114000 -0.024437 -0.065993 0.008011 0.002438 0.016001 0.152001 0.087999 -0.064000 0.104000 0.155368 -0.124000 0.167997 -0.147999 0.095999 -0.002004 -0.317998 0.202013 0.221997 -0.090002 0.130002 0.118000 0.002001 0.118018 0.056002 0.078001 0.091521 0.218127 
0.141997 0.043999 -0.002000 0.075132 -0.062000 0.079688 -0.194672 0.020001 0.074598 -0.171999 0.147999 0.228002 0.124000 0.246001 0.221998 -0.014002 0.037998 -0.168001 0.049980 -0.042000 -0.297982 0.181998 0.234000 0.187993 0.028001 0.073999 -0.188006 0.213984 0.071997 0.049997 0.106006 0.152001 
0.058002 0.202000 -0.038000 0.150000 -0.081994 0.160227 0.007999 0.139985 0.011998 0.195999 -0.107998 0.053562 0.222154 0.225998 -0.004064 0.006004 0.296004 -0.169998 0.100305 -0.118013 -0.138004 -0.091988 0.233995 0.189970 -0.281963 -0.098533 0.009993 0.060056 0.215993 0.000002 0.183998 -0.158005 
-0.002000 -0.002004 -0.020000 -0.058000 0.121993 0.017999 0.095996 -0.124025 -0.010001 0.077999 -0.092001 -0.242003 0.323998 -0.147997 -0.019994 0.072005 0.116009 0.030002 -0.088004 -0.089997 0.016000 -0.136017 -0.050001 -0.008003 -0.136002 0.164001 -0.209999 0.267998 0.117999 0.080004 0.021995 0.023944 
-0.218001 0.006001 -0.119998 -0.030004 -0.143995 0.194292 0.094000 -0.103996 -0.068000 0.313991 0.092001 -0.102001 0.116021 -0.179999 -0.208000 0.191633 0.103999 -0.047987 0.072015 -0.049997 0.289999 0.097999 0.108005 0.090001 -0.148327 -0.004004 -0.176003 0.172918 0.058001 -0.175999 0.202009 0.053404 
-0.218004 0.044000 -0.002002 0.142004 -0.126001 0.071999 0.080000 0.049927 -0.163999 0.311997 0.181968 -0.284000 0.060000 -0.203997 0.005990 0.165997 0.244001 0.271997 0.076708 0.100000 0.084000 0.003999 0.004004 -0.165995 -0.200028 0.172001 -0.169999 -0.092000 -0.072003 -0.110002 0.213996 0.133999 
-0.138000 0.028000 0.214001 0.102001 0.049991 0.007999 0.256000 0.266000 0.023997 0.079998 0.041999 -0.063999 -0.022004 0.013999 -0.090085 0.089997 0.029998 0.141997 0.203999 -0.035949 0.279998 0.244085 0.044000 -0.062030 0.092000 -0.115998 0.068003 0.058002 -0.193986 -0.096000 0.108882 -0.090000 
0.167998 0.179997 0.222002 0.068001 -0.204000 0.042506 0.249998 0.200009 -0.180001 0.070001 0.034003 -0.005999 0.170002 -0.097998 0.018930 -0.106005 -0.060028 0.321998 -0.013999 0.047864 0.044007 0.220558 0.132609 -0.078001 0.102000 0.042000 -0.090000 0.090001 0.013999 0.054002 -0.148057 -0.054000 
0.194000 0.129973 0.224004 0.065997 -0.257922 -0.189992 0.018000 0.132000 -0.190001 0.029999 -0.012004 0.034000 -0.053995 0.187999 0.067998 -0.103999 0.116000 0.301999 0.181951 0.095996 0.107332 0.289999 -0.015996 -0.018001 -0.064000 -0.172000 -0.042006 -0.054003 0.051153 0.024003 -0.183999 -0.098001 
0.009992 0.135995 0.117076 -0.107986 -0.143992 0.023995 -0.006006 -0.091995 0.026002 0.194001 0.159999 -0.102000 -0.060003 0.242004 0.099992 -0.091996 -0.123990 0.284002 -0.010003 0.069858 -0.068006 0.071997 -0.059791 0.202001 -0.125996 0.023998 0.182002 -0.050005 -0.123999 0.068000 -0.006214 -0.109999 
0.225998 -0.000068 -0.030000 -0.104015 -0.215994 -0.133212 0.156009 -0.092085 -0.144000 0.155999 0.207999 0.125751 0.120002 0.205223 -0.091997 0.151999 0.068001 0.220003 0.014001 0.090064 0.038000 0.240000 -0.044008 0.242909 0.064001 -0.001998 0.138012 -0.077997 0.133999 0.072000 0.024010 0.031052 
0.087994 0.158003 0.134173 -0.087995 -0.203998 0.021999 0.094000 -0.093994 0.042006 -0.035464 -0.003999 -0.013993 -0.139987 0.147996 0.130000 -0.034011 0.101990 0.157993 0.023994 0.021989 -0.258001 0.181999 -0.060002 0.105979 -0.202006 0.027411 -0.078003 0.141999 -0.032038 -0.065996 -0.138600 -0.074006 
0.060000 0.140031 -0.093999 0.172003 0.059989 -0.206972 -0.125939 -0.147984 0.106006 -0.006000 -0.058009 0.061985 -0.180001 0.157995 0.207994 -0.094001 -0.085998 -0.205953 0.079973 -0.208776 -0.101992 -0.133996 -0.103992 0.281996 -0.063843 0.042002 0.084050 0.206004 0.317988 0.120003 -0.185994 -0.046101 
0.011999 0.181969 0.089996 0.095983 0.017760 -0.081976 -0.164152 0.186009 0.214005 -0.109981 0.005981 0.368006 -0.109158 0.185949 0.277991 -0.150000 0.185991 -0.287303 0.131942 -0.345985 -0.405979 -0.004013 0.007984 0.199917 -0.331992 0.110023 0.048149 0.017998 0.348668 -0.009990 0.050036 0.035985 
-0.085837 -0.004577 -0.132230 0.359508 -0.018087 -0.155561 0.116115 0.230673 0.026182 -0.086390 0.102017 0.202134 0.107734 0.265875 0.057563 -0.213700 0.221364 -0.136930 0.329979 -0.336002 -0.143275 -0.009486 -0.305941 -0.132405 -0.279423 0.080015 -0.161585 -0.127822 0.059252 0.267955 0.139967 0.289361 
0.108692 -0.067037 -0.092318 0.069386 -0.048629 -0.063569 0.163260 0.210633 0.163503 -0.165624 0.181934 0.260922 -0.046067 -0.034765 -0.046314 -0.003728 0.149686 -0.232717 0.065840 -0.064733 -0.007385 -0.139522 -0.211177 -0.132474 -0.019698 0.142822 0.096050 -0.120084 0.177212 0.148320 -0.072861 0.047751 
0.111016 0.095029 0.094890 0.138963 -0.094435 0.061794 -0.081444 -0.073163 -0.094988 0.046246 -0.096879 -0.063062 -0.101001 -0.087029 -0.095002 0.093007 -0.092718 -0.136959 -0.061116 -0.136912 -0.124871 0.095002 0.087031 -0.098969 0.067015 -0.095013 -0.090956 0.104989 0.122981 -0.106931 0.104911 0.109001 
0.083355 -0.081426 0.081545 -0.110820 0.104456 -0.081529 0.117145 0.118520 0.081498 0.113917 -0.082001 -0.117460 0.116959 -0.081711 0.082098 -0.081593 0.117940 -0.082472 -0.081517 0.085981 0.086122 0.118200 0.118375 -0.086171 0.082243 0.085514 0.081490 -0.112712 0.085400 0.085915 -0.117935 -0.116105 
-0.174566 0.157784 0.042474 0.064167 0.139225 -0.020894 0.178163 0.151765 -0.155873 0.170235 0.173007 -0.176767 0.176000 -0.049477 0.021131 -0.040531 -0.020965 0.171286 -0.048549 0.029972 0.050939 -0.049831 0.125782 0.153416 -0.175427 -0.156381 -0.157947 0.046186 -0.140042 0.069206 0.082002 -0.162238 
-0.291368 0.093332 -0.266774 0.010470 -0.005424 0.106572 0.094088 0.176238 -0.077032 0.082726 0.095637 -0.286761 0.292912 0.076266 -0.107421 0.085413 0.112953 0.105763 0.085884 -0.046431 -0.041216 0.291056 0.094936 -0.021407 -0.187743 -0.261760 -0.093976 -0.247122 -0.269242 -0.141916 0.031743 -0.065032 
-0.090978 0.056846 0.007000 -0.060219 0.098617 0.297180 0.093429 0.069069 -0.032109 0.280220 0.138502 -0.251433 0.146970 -0.054289 -0.078960 -0.018742 0.322688 0.161362 0.227938 -0.248340 -0.082569 0.272615 0.240208 0.056462 -0.015933 -0.312554 -0.226465 -0.107465 -0.275620 0.026900 0.104932 -0.025911 
0.026004 -0.016030 -0.103925 0.011988 0.077949 0.155870 0.108418 -0.018012 0.050031 0.249883 0.267987 -0.178003 0.011955 0.091809 -0.217979 0.174018 0.186170 0.107974 0.191903 0.057436 0.143505 0.059505 0.043979 0.003951 0.070071 -0.022683 0.060041 -0.227644 -0.015812 -0.075824 0.209041 -0.147789 
0.041981 -0.078031 -0.069997 0.049992 0.032002 -0.054030 0.175982 0.157998 -0.072268 -0.004005 -0.012007 0.127999 0.029991 0.185988 0.066005 0.150004 0.142008 0.017977 -0.041995 0.125983 -0.100013 0.231976 0.180009 0.163993 -0.093984 0.026013 0.108030 -0.168042 -0.218002 0.147995 0.198032 0.092008 
0.046000 0.135997 0.065998 0.175983 -0.101999 -0.070004 0.109988 0.211988 0.197998 -0.071989 0.202006 -0.010006 0.182002 0.236004 0.130023 0.180007 -0.046000 -0.080009 0.195994 0.127990 -0.022002 0.235996 -0.004005 -0.027282 -0.123998 0.002007 -0.123929 -0.114003 -0.049995 0.019978 -0.037994 -0.004028 
-0.103973 0.182001 0.096002 0.041017 -0.090875 0.089998 -0.127986 0.002006 0.195991 -0.109998 0.021999 0.031999 -0.058000 0.301999 0.161994 0.187932 -0.054001 -0.090004 0.172798 0.179999 -0.296001 0.041997 0.033992 0.043916 0.097999 -0.168000 -0.146009 -0.083992 -0.053998 0.252006 -0.020001 0.215996 
-0.078000 -0.012001 -0.118007 0.200000 0.083996 -0.139994 -0.176002 0.018006 0.011999 0.070001 -0.011997 0.246006 0.114001 0.136001 0.243993 -0.015995 -0.082002 0.058000 0.027998 -0.009997 -0.109994 0.091998 0.212001 -0.063992 -0.093997 0.046001 0.044001 0.165979 -0.021988 0.077995 0.022391 0.239997 
0.124004 0.245999 0.104097 0.020014 0.082010 0.031998 -0.057999 0.263997 0.212001 0.072000 0.184002 0.093998 -0.078001 0.129998 0.276002 -0.122000 -0.070001 -0.138008 0.285999 0.185995 -0.122016 0.085998 0.014001 -0.073996 0.141989 0.078004 0.031999 -0.109993 -0.174006 0.106000 0.141997 0.035999 
0.104004 0.142483 -0.054000 0.202000 0.119996 -0.144003 -0.036008 0.055994 0.040000 -0.192021 -0.021998 0.305999 -0.102002 0.231723 0.093996 -0.142000 0.156003 0.056001 0.265999 0.261981 -0.136000 0.049999 0.230881 0.146001 -0.010006 -0.150000 -0.132199 -0.115996 -0.058001 0.130003 -0.072000 0.042001 
-0.088003 0.039998 0.012533 0.218006 0.107818 0.067954 -0.270000 0.257994 0.239999 -0.053999 -0.030000 0.321998 -0.126002 0.059914 0.180435 -0.193999 0.029999 0.004001 0.069999 0.048002 -0.319997 0.198002 0.262001 0.235999 -0.098000 -0.005999 0.037999 0.144005 -0.026001 0.268010 -0.052000 0.227999 
0.086002 0.204000 -0.007999 0.043999 0.168000 0.142000 -0.002005 0.004000 0.240000 -0.061064 0.168004 0.297999 -0.176001 0.007958 0.197997 0.117976 0.075999 -0.209999 -0.014002 0.098672 -0.254000 -0.048001 0.216000 0.255999 0.017994 -0.030003 -0.045360 0.023999 0.083965 0.049999 -0.020005 0.207998 
0.075993 0.210001 -0.073998 0.061999 -0.034000 0.209997 0.211998 -0.130003 0.260004 0.018775 -0.020002 0.132000 0.153997 0.110001 -0.124079 0.036002 0.107994 -0.053999 0.109996 -0.167999 0.098001 -0.058755 -0.117991 0.070005 -0.104006 0.025994 -0.123998 0.117995 0.273998 0.017991 0.196001 -0.030000 
-0.199869 0.217952 -0.267999 0.269995 -0.101995 0.028000 0.100000 -0.031995 0.192002 0.095997 0.051563 -0.231997 0.279995 -0.202028 -0.258000 0.087603 0.260005 -0.268000 0.007999 -0.087991 0.248000 -0.164008 -0.190001 -0.033997 -0.140000 -0.020005 0.071996 0.309869 0.304000 -0.061998 0.055998 0.026001 
-0.258002 0.264000 -0.122774 0.024000 0.079995 0.051995 0.300000 -0.168001 -0.054001 0.130000 -0.072009 -0.030001 0.086002 -0.063995 -0.214003 0.071991 0.072001 0.042000 -0.201999 -0.158000 0.270001 -0.116001 0.028005 -0.155996 -0.082000 0.071129 -0.163996 0.248001 -0.017998 0.146001 0.178388 0.257999 
-0.045992 0.267986 -0.014003 0.002001 -0.106007 0.051998 0.265999 0.229998 0.108016 0.289902 0.211999 -0.213998 0.010001 -0.244002 0.044000 -0.023999 0.002001 0.061997 0.078001 0.040000 0.278000 0.201999 0.077373 -0.130012 -0.086001 0.142008 -0.143999 -0.116000 -0.204000 -0.007999 0.252004 0.248001 
-0.146001 0.016000 0.222000 0.119999 0.059999 -0.048000 0.233999 0.243996 -0.120000 0.074000 0.222000 -0.162010 -0.034012 -0.004002 -0.030239 0.130000 0.171999 0.139995 0.173996 0.268804 0.059981 0.257999 0.211993 0.080000 0.213997 -0.127998 -0.089999 -0.197998 -0.317994 -0.030000 -0.004004 0.175999 
0.144002 0.093731 0.224001 -0.159999 -0.209994 0.045998 0.212001 -0.045985 -0.125991 0.138819 0.181987 0.050001 0.011539 0.160000 -0.005019 0.138000 -0.102004 0.120001 0.122001 0.202000 0.011971 0.272001 0.030004 -0.100000 -0.040000 0.046004 -0.046001 0.057998 -0.165002 0.099997 0.066000 0.130005 
0.012001 0.085997 0.230001 -0.175998 -0.081998 0.031999 -0.050001 0.064009 -0.154001 0.233919 0.155093 -0.094002 0.157999 0.058001 0.068000 -0.073997 0.038000 0.316000 -0.063998 -0.042000 -0.065998 0.292000 0.205702 -0.014001 -0.040001 0.030001 0.004000 0.101988 -0.002006 -0.149993 -0.215996 -0.131998 
